doc,0,1,2,3,4,5,6,7,8,9,10,11,12,13,14,15,16,17,18,19,20,21,22,23,24,25,26,27,28,29,30,31,32,33,34,35,36,37,38,39,40,41,42,43,44,45,46,47,48,49,50,51,52,53,54,55,56,57,58,59,60,61,62,63,64,65,66,67,68,69,70,71,72,73,74,75,76,77,78,79,80,81,82,83,84,85,86,87,88,89,90,91,92,93,94,95,96,97,98,99,100,101,102,103,104,105,106,107,108,109,110,111,112,113,114,115,116,117,118,119,120,121,122,123,124,125,126,127,128,129,130,131,132,133,134,135,136,137,138,139,140,141,142,143,144,145,146,147,148,149,150,151,152,153,154,155,156,157,158,159,160,161,162,163,164,165,166,167,168,169,170,171,172,173,174,175,176,177,178,179,180,181,182,183,184,185,186,187,188,189,190,191,192,193,194,195,196,197,198,199,200,201,202,203,204,205,206,207,208,209,210,211,212,213,214,215,216,217,218,219,220,221,222,223,224,225,226,227,228,229,230,231,232,233,234,235,236,237,238,239,240,241,242,243,244,245,246,247,248,249,250,251,252,253,254,255,256,257,258,259,260,261,262,263,264,265,266,267,268,269,270,271,272,273,274,275,276,277,278,279,280,281,282,283,284,285,286,287,288,289,290,291,292,293,294,295,296,297,298,299,300,301,302,303,304,305,306,307,308,309,310,311,312,313,314,315,316,317,318,319,320,321,322,323,324,325,326,327,328,329,330,331,332,333,334,335,336,337,338,339,340,341,342,343,344,345,346,347,348,349,350,351,352,353,354,355,356,357,358,359,360,361,362,363,364,365,366,367,368,369,370,371,372,373,374,375,376,377,378,379,380,381,382,383,384,385,386,387,388,389,390,391,392,393,394,395,396,397,398,399,400,401,402,403,404,405,406,407,408,409,410,411,412,413,414,415,416,417,418,419,420,421,422,423,424,425,426,427,428,429,430,431,432,433,434,435,436,437,438,439,440,441,442,443,444,445,446,447,448,449,450,451,452,453,454,455,456,457,458,459,460,461,462,463,464,465,466,467,468,469,470,471,472,473,474,475,476,477,478,479,480,481,482,483,484,485,486,487,488,489,490,491,492,493,494,495,496,497,498,499,500,501,502,503,504,505,506,507,508,509,510,511,512,513,514,515,516,517,518,519,520,521,522,523,524,525,526,527,528,529,530,531,532,533,534,535,536,537,538,539,540,541,542,543,544,545,546,547,548,549,550,551,552,553,554,555,556,557,558,559,560,561,562,563,564,565,566,567,568,569,570,571,572,573,574,575,576,577,578,579,580,581,582,583,584,585,586,587,588,589,590,591,592,593,594,595,596,597,598,599,600,601,602,603,604,605,606,607,608,609,610,611,612,613,614,615,616,617,618,619,620,621,622,623,624,625,626,627,628,629,630,631,632,633,634,635,636,637,638,639,640,641,642,643,644,645,646,647,648,649,650,651,652,653,654,655,656,657,658,659,660,661,662,663,664,665,666,667,668,669,670,671,672,673,674,675,676,677,678,679,680,681,682,683,684,685,686,687,688,689,690,691,692,693,694,695,696,697,698,699,700,701,702,703,704,705,706,707,708,709,710,711,712,713,714,715,716,717,718,719,720,721,722,723,724,725,726,727,728,729,730,731,732,733,734,735,736,737,738,739,740,741,742,743,744,745,746,747,748,749,750,751,752,753,754,755,756,757,758,759,760,761,762,763,764,765,766,767,768,769,770,771,772,773,774,775,776,777,778,779,780,781,782,783,784,785,786,787,788,789,790,791,792,793,794,795,796,797,798,799,800,801,802,803,804,805,806,807,808,809,810,811,812,813,814,815,816,817,818,819,820,821,822,823,824,825,826,827,828,829,830,831,832,833,834,835,836,837,838,839,840,841,842,843,844,845,846,847,848,849,850,851,852,853,854,855,856,857,858,859,860,861,862,863,864,865,866,867,868,869,870,871,872,873,874,875,876,877,878,879,880,881,882,883,884,885,886,887,888,889,890,891,892,893,894,895,896,897,898,899,900,901,902,903,904,905,906,907,908,909,910,911,912,913,914,915,916,917,918,919,920,921,922,923,924,925,926,927,928,929,930,931,932,933,934,935,936,937,938,939,940,941,942,943,944,945,946,947,948,949,950,951,952,953,954,955,956,957,958,959,960,961,962,963,964,965,966,967,968,969,970,971,972,973,974,975,976,977,978,979,980,981,982,983,984,985,986,987,988,989,990,991,992,993,994,995,996,997,998,999,1000,1001,1002,1003,1004,1005,1006,1007,1008,1009,1010,1011,1012,1013,1014,1015,1016,1017,1018,1019,1020,1021,1022,1023,1024,1025,1026,1027,1028,1029,1030,1031,1032,1033,1034,1035,1036,1037,1038,1039,1040,1041,1042,1043,1044,1045,1046,1047,1048,1049,1050,1051,1052,1053,1054,1055,1056,1057,1058,1059,1060,1061,1062,1063,1064,1065,1066,1067,1068,1069,1070,1071,1072,1073,1074,1075,1076,1077,1078,1079,1080,1081,1082,1083,1084,1085,1086,1087,1088,1089,1090,1091,1092,1093,1094,1095,1096,1097,1098,1099,1100,1101,1102,1103,1104,1105,1106,1107,1108,1109,1110,1111,1112,1113,1114,1115,1116,1117,1118,1119,1120,1121,1122,1123,1124,1125,1126,1127,1128,1129,1130,1131,1132,1133,1134,1135,1136,1137,1138,1139,1140,1141,1142,1143,1144,1145,1146,1147,1148,1149,1150,1151,1152,1153,1154,1155,1156,1157,1158,1159,1160,1161,1162,1163,1164,1165,1166,1167,1168,1169,1170,1171,1172,1173,1174,1175,1176,1177,1178,1179,1180,1181,1182,1183,1184,1185,1186,1187,1188,1189,1190,1191,1192,1193,1194,1195,1196,1197,1198,1199,1200,1201,1202,1203,1204,1205,1206,1207,1208,1209,1210,1211,1212,1213,1214,1215,1216,1217,1218,1219,1220,1221,1222,1223,1224,1225,1226,1227,1228,1229,1230,1231,1232,1233,1234,1235,1236,1237,1238,1239,1240,1241,1242,1243,1244,1245,1246,1247,1248,1249,1250,1251,1252,1253,1254,1255,1256,1257,1258,1259,1260,1261,1262,1263,1264,1265,1266,1267,1268,1269,1270,1271,1272,1273,1274,1275,1276,1277,1278,1279,1280,1281,1282,1283,1284,1285,1286,1287,1288,1289,1290,1291,1292,1293,1294,1295,1296,1297,1298,1299,1300,1301,1302,1303,1304,1305,1306,1307,1308,1309,1310,1311,1312,1313,1314,1315,1316,1317,1318,1319,1320,1321,1322,1323,1324,1325,1326,1327,1328,1329,1330,1331,1332,1333,1334,1335,1336,1337,1338,1339,1340,1341,1342,1343,1344,1345,1346,1347,1348,1349,1350,1351,1352,1353,1354,1355,1356,1357,1358,1359,1360,1361,1362,1363,1364,1365,1366,1367,1368,1369,1370,1371,1372,1373,1374,1375,1376,1377,1378,1379,1380,1381,1382,1383,1384,1385,1386,1387,1388,1389,1390,1391,1392,1393,1394,1395,1396,1397,1398,1399,1400,1401,1402,1403,1404,1405,1406,1407,1408,1409,1410,1411,1412,1413,1414,1415,1416,1417,1418,1419,1420,1421,1422,1423,1424,1425,1426,1427,1428,1429,1430,1431,1432,1433,1434,1435,1436,1437,1438,1439,1440,1441,1442,1443,1444,1445,1446,1447,1448,1449,1450,1451,1452,1453,1454,1455,1456,1457,1458,1459,1460,1461,1462,1463,1464,1465,1466,1467,1468,1469,1470,1471,1472,1473,1474,1475,1476,1477,1478,1479,1480,1481,1482,1483,1484,1485,1486,1487,1488,1489,1490,1491,1492,1493,1494,1495,1496,1497,1498,1499,1500,1501,1502,1503,1504,1505,1506,1507,1508,1509,1510,1511,1512,1513,1514,1515,1516,1517,1518,1519,1520,1521,1522,1523,1524,1525,1526,1527,1528,1529,1530,1531,1532,1533,1534,1535
1830_Sue-Eugene_Kernok-le-Pirate.txt_chunk_0,0.002710700035095215,0.006327178794890642,0.01461190078407526,-8.724962390260771e-05,-0.008653005585074425,0.018513716757297516,-0.010245583951473236,0.0227738618850708,-0.020305367186665535,-0.022654417902231216,0.002408773871138692,0.005587293766438961,0.007836809381842613,-0.012574728578329086,-0.006854719948023558,-0.0030391691252589226,0.03174538165330887,0.006801634095609188,-0.0024054560344666243,-0.015156031586229801,-0.029303431510925293,-0.008228318765759468,0.018407544121146202,0.0076377373188734055,-0.017677612602710724,-0.016151392832398415,0.030179347842931747,-0.024671683087944984,0.0030142851173877716,-0.006745230406522751,0.011911154724657536,0.019230376929044724,-0.021327270194888115,-0.0024037971161305904,-0.04419403150677681,-0.022136831656098366,-0.01058400608599186,0.00994697492569685,0.013656354509294033,-0.01240219920873642,0.014545543119311333,0.008613191545009613,0.0015569106908515096,-0.01202396210283041,-0.02327817864716053,0.009004699997603893,-0.010318576358258724,-0.004927037283778191,-0.017969585955142975,0.011539553292095661,0.02045135200023651,0.03432004898786545,0.005577340256422758,-0.006078338250517845,-0.002138367388397455,-0.014545543119311333,-0.015673618763685226,0.0113869309425354,0.017956314608454704,-0.02017265185713768,0.021035298705101013,0.0015494454419240355,-0.015010044910013676,-0.010019968263804913,-0.01394832693040371,0.0001928512065205723,0.008653005585074425,-0.0018994808197021484,-0.01966833509504795,-0.006967527791857719,0.011247580870985985,0.03076329454779625,0.007558108773082495,-0.010132775641977787,0.043291572481393814,-0.009270129725337029,-0.021300727501511574,-0.013377653434872627,-0.02431335300207138,0.021605972200632095,-0.0059854378923773766,0.0023225091863423586,-0.02586611732840538,0.018434086814522743,0.010404841043055058,0.006665601395070553,-0.008354397490620613,0.01628410816192627,-0.04164590686559677,-0.011844797059893608,-0.016085036098957062,0.041990965604782104,-0.003994715865701437,-0.010159319266676903,0.015302018262445927,0.003327823942527175,-0.025215813890099525,0.034505851566791534,-0.004910448100417852,-0.0076377373188734055,0.0014200485311448574,0.0035832999274134636,-0.021818315610289574,-0.019057847559452057,-0.008593284524977207,-0.016921138390898705,0.0019459309987723827,-0.0021499800495803356,0.019548891112208366,-0.0227738618850708,0.011081687174737453,0.03946938365697861,0.01727946847677231,-0.00916395802050829,0.0077969953417778015,-0.034028079360723495,-0.009681545197963715,-0.0016896254383027554,0.0063736289739608765,-0.024910571053624153,-0.0005806272965855896,0.029940461739897728,-0.023331264033913612,0.00038445822428911924,0.03078983724117279,0.023185277357697487,-0.011340481229126453,0.0010243924334645271,-0.00562710827216506,-0.008400848135352135,-0.001081625698134303,-0.005428035743534565,-0.01858007349073887,-0.01074989978224039,-0.007697459310293198,0.018540259450674057,-0.019230376929044724,0.006234278436750174,-0.011300666257739067,-0.03729286417365074,0.023583421483635902,0.0217386856675148,-0.006307271309196949,-0.0019409541273489594,0.001585941994562745,0.03280710056424141,0.019071118906140327,0.02716672234237194,0.016496451571583748,-0.01394832693040371,0.027551595121622086,-0.026755306869745255,0.01988067850470543,-0.019548891112208366,0.009011335670948029,0.01961524970829487,-0.0025166047271341085,0.007916438393294811,0.0008800650830380619,0.007000706624239683,0.004943626932799816,0.01214340515434742,0.019190562888979912,-0.008639734238386154,0.027060549706220627,0.03203735500574112,0.010351755656301975,-0.025268901139497757,-0.008128782734274864,-0.024392982944846153,0.011035236530005932,0.015686890110373497,-0.026503147557377815,0.026264261454343796,0.014333199709653854,0.02091585472226143,0.004807594232261181,0.0024104327894747257,-0.028400970622897148,-0.0037757365498691797,-0.04119467735290527,-0.023968296125531197,0.019814321771264076,0.02739233709871769,0.015381647273898125,-0.0012151700211688876,0.012846793979406357,0.00025174341863021255,-0.0008958249818533659,-0.033948447555303574,0.006015298888087273,-0.005802955012768507,-0.011240944266319275,-0.01936309039592743,-0.6442508101463318,-0.002969493856653571,-0.01126748789101839,0.002383889863267541,0.014227028004825115,0.022641146555542946,0.025441430509090424,0.02065042406320572,-0.03100218065083027,0.032992903143167496,-0.026489876210689545,0.020318638533353806,0.009090964682400227,0.009528923779726028,-0.005766458809375763,-0.01786341331899166,0.027578137814998627,0.002231267746537924,0.03949593007564545,0.016191206872463226,-0.02299947664141655,0.009402844123542309,0.013364382088184357,0.029648488387465477,0.018566802144050598,-0.001114804414100945,0.003278055926784873,-0.031161438673734665,-0.0009688181453384459,0.002634389093145728,-0.030922550708055496,0.0061247884295880795,-0.012435377575457096,-0.021791772916913033,0.06465865671634674,-0.009137415327131748,-0.0016887959791347384,0.06582655012607574,0.018500445410609245,0.008898528292775154,0.016217749565839767,-0.01631065085530281,0.0025149458087980747,7.44447170291096e-05,0.024937113747000694,-0.006685508880764246,0.030471321195364,0.00575982267037034,0.008871985599398613,-0.020464623346924782,0.03516942635178566,-0.03463856503367424,-0.0119045190513134,0.0028583453968167305,-0.0034140886273235083,-0.016124850139021873,0.02739233709871769,-0.025786487385630608,0.024220453575253487,0.01046456303447485,-0.007226321380585432,0.003024238860234618,-0.005630426108837128,-0.027312709018588066,-0.0198939498513937,0.010716721415519714,-0.010809621773660183,0.0019890633411705494,0.01785014197230339,-0.01060391403734684,-0.003596571506932378,0.01762452721595764,-0.01136038824915886,-0.008400848135352135,-0.0029927189461886883,0.02845405600965023,0.01678842306137085,-0.01737236976623535,-0.01653626561164856,0.0032913272734731436,0.007027249317616224,-0.005577340256422758,-0.037345949560403824,0.02168560028076172,0.024671683087944984,0.0016697181854397058,-0.02951577492058277,0.029011458158493042,-0.008925070986151695,-0.004727965220808983,-0.01787668466567993,0.0418582521378994,0.00030607354710809886,-0.0046516540460288525,0.00958200916647911,0.03962864354252815,-0.00580959115177393,0.01061718538403511,0.004970169626176357,-0.030099719762802124,0.0017203157767653465,-0.023994838818907738,0.01684151031076908,-0.007584651466459036,0.010338484309613705,-0.006921077612787485,0.014386286027729511,0.005872630514204502,0.024246996268630028,-0.022813675925135612,-0.007279407698661089,-0.012515006586909294,0.009628459811210632,-0.015978863462805748,0.0038354580756276846,-0.024884028360247612,-0.008825534954667091,-0.01317194476723671,0.015169302932918072,-0.02946268767118454,0.009376301430165768,0.011858068406581879,0.009615188464522362,-0.013921784237027168,0.01396159827709198,0.011400202289223671,0.00014339420886244625,-0.018022671341896057,-0.0012906515039503574,-0.005361678544431925,0.006104881409555674,-0.022654417902231216,0.004575343336910009,-0.0022379036527127028,0.012236305512487888,0.010398205369710922,0.032700929790735245,-0.008944978006184101,0.037399034947156906,-0.022946391254663467,-0.015461275354027748,-0.007651009131222963,-0.010318576358258724,-0.004943626932799816,-0.002896500751376152,-0.047697704285383224,-0.025242356583476067,-0.01986740715801716,-0.05903154984116554,0.010278762318193913,-0.0011347116669639945,-0.010146047919988632,-0.014213756658136845,0.0016207796288654208,-0.003759147133678198,0.01762452721595764,-0.019801050424575806,-0.017743971198797226,-0.014664987102150917,-0.009927067905664444,0.005856041330844164,0.01526220329105854,-0.00498012313619256,-0.006728641223162413,0.0057399156503379345,0.005720008630305529,0.00047860280028544366,-0.0008066572481766343,-0.010756535455584526,-0.01783687062561512,0.028241712599992752,-0.013145402073860168,0.006128106266260147,0.0067485482431948185,-0.014678258448839188,0.03378919139504433,-0.03750520572066307,-0.015394918620586395,-0.009741267189383507,0.004051119554787874,0.013921784237027168,0.0039018155075609684,-0.021008754149079323,-0.01242874190211296,0.014678258448839188,-0.005962213035672903,0.02096894010901451,0.02789665386080742,-0.018288102000951767,0.03538176789879799,0.023145463317632675,-0.030391693115234375,0.003978126682341099,-0.004243555944412947,-0.006031888071447611,0.002775398548692465,0.0033394363708794117,0.025706859305500984,-0.021061841398477554,0.017943043261766434,0.013371017761528492,0.037850264459848404,0.043026141822338104,0.004830819088965654,0.015713434666395187,-0.01733255386352539,0.013032594695687294,-0.0038520474918186665,0.03588608652353287,-0.009615188464522362,-0.017000768333673477,-0.0035766642540693283,-0.02508310042321682,-0.012495099566876888,0.012422106228768826,0.015912506729364395,-0.010577370412647724,-0.010623821057379246,0.028560228645801544,0.022906577214598656,-0.0005768947303295135,-0.0003129166434518993,-0.00026605173479765654,0.006274092942476273,-0.028374427929520607,-0.00029383887886069715,0.011247580870985985,-0.004455899819731712,-0.003190132323652506,-0.04326502978801727,-0.01072335708886385,0.011745261028409004,-0.0054446253925561905,0.011347116902470589,0.017398912459611893,0.022043930366635323,0.013271481730043888,-0.008619827218353748,0.02323836460709572,0.0018679610220715404,0.03670891746878624,0.016231020912528038,0.01446591503918171,-0.0046516540460288525,0.02095566876232624,0.008619827218353748,0.03201081231236458,0.0023208502680063248,-0.018022671341896057,-0.004645018372684717,0.017730699852108955,0.01058400608599186,-0.019469263032078743,-0.0010343460598960519,0.0027687628753483295,-0.005607200786471367,-0.00045911030611023307,0.03445276618003845,0.028268255293369293,0.03201081231236458,0.008234954439103603,0.004173880908638239,-0.005092930980026722,0.025030013173818588,0.009688181802630424,-0.014903873205184937,-0.004598568193614483,-0.029038000851869583,0.007584651466459036,-0.0013769161887466908,-0.016881324350833893,-0.024645140394568443,0.009920432232320309,-0.011433381587266922,0.0022727411706000566,-0.03275401517748833,-0.00018258654745295644,0.010232311673462391,-0.02537507191300392,0.011406837962567806,-0.012422106228768826,-0.028799114748835564,0.022826947271823883,0.049768056720495224,-0.00944929476827383,-0.018712788820266724,-0.02071678265929222,0.02792319655418396,-0.02664913423359394,0.014014684595167637,-0.010411476716399193,0.0018082393798977137,0.005152652505785227,-0.012548185884952545,-0.01735909841954708,-0.014771158806979656,0.016377007588744164,-0.023172006011009216,0.02869294211268425,-0.012488463893532753,-0.02066369727253914,-0.021114926785230637,-0.022853489965200424,0.003156953724101186,0.03469165042042732,0.003065712284296751,-0.02508310042321682,-0.013921784237027168,-0.019071118906140327,-0.013244938105344772,-0.01074989978224039,0.012787071987986565,0.004492396488785744,0.02350379340350628,0.01035839132964611,-0.0010857731103897095,0.012050504796206951,0.007690823636949062,0.03532868251204491,0.009382937103509903,0.0003834214003290981,-0.037133604288101196,-0.018978217616677284,-0.0043563637882471085,0.06380928307771683,0.0255874153226614,0.005255506373941898,0.00359325367026031,0.013881969265639782,-0.0007544007385149598,-0.018991488963365555,-0.01838100142776966,0.0219643022865057,-0.02067696861922741,0.023596694692969322,-0.0116457249969244,0.036363858729600906,-0.031214524060487747,0.030577493831515312,-0.01839427277445793,-0.003311234526336193,-0.023649780079722404,0.007312586065381765,-0.0010766489431262016,-0.005457896739244461,-0.00600534537807107,-0.008427390828728676,0.03248858451843262,0.0028301433194428682,-0.005039845127612352,0.01632392220199108,0.01966833509504795,0.019548891112208366,-0.0016821603057906032,-0.004834136925637722,0.00395158352330327,0.004917083773761988,-0.002823507646098733,-0.009900525212287903,-0.023981567472219467,0.01446591503918171,0.03182501345872879,0.0037890078965574503,-0.0010990445734933019,0.015434732660651207,0.005846087355166674,0.009986789897084236,-0.017266197130084038,0.030922550708055496,0.0111281368881464,0.007558108773082495,0.012700807303190231,-0.0005619642906822264,-0.02406119555234909,0.03429350629448891,-0.012707442976534367,-0.028374427929520607,-0.023848852142691612,0.005958895199000835,0.011479831300675869,-0.013656354509294033,0.012906515970826149,0.006240914110094309,0.002179840812459588,0.01859334483742714,-0.020093021914362907,-0.005092930980026722,-0.019270190969109535,-0.019734691828489304,-0.038434211164712906,-0.010816257447004318,0.0037292861379683018,-0.033205244690179825,0.008984792977571487,-0.001172037678770721,-0.028029369190335274,-0.013629810884594917,0.0016962612280622125,0.023357806727290154,0.02176523022353649,0.01449245773255825,-0.014784430153667927,-8.305044320877641e-05,0.013895240612328053,0.016350464895367622,0.003991398029029369,-0.011227672919631004,-0.028347883373498917,-0.0025033331476151943,0.01512948889285326,0.001708703231997788,-0.015819605439901352,0.008725998923182487,-0.007883260026574135,0.020039936527609825,0.008546833880245686,0.00852692686021328,0.007013977970927954,-0.004625111352652311,0.0063736289739608765,0.006801634095609188,-0.012435377575457096,-0.0008443979895673692,-0.025136185809969902,0.018022671341896057,-0.017690883949398994,0.008314583450555801,-0.0030441461130976677,0.024897299706935883,-0.012833522632718086,-0.0016091670840978622,-0.019270190969109535,-0.009867345914244652,-0.0019392952090129256,0.008062425069510937,-0.03182501345872879,-0.017717426642775536,-0.005832816008478403,-0.02038499526679516,0.013238302432000637,0.009588644839823246,0.021128198131918907,-0.01993376575410366,-0.017757242545485497,-0.019018033519387245,-0.02813553996384144,0.0066191512160003185,-0.0003411185462027788,-0.0023457342758774757,0.00498012313619256,-0.025759944692254066,-0.00634376797825098,-0.009157322347164154,0.0010932382429018617,0.020292095839977264,0.022561518475413322,-0.008400848135352135,-0.015302018262445927,-0.01332456711679697,-0.006771773565560579,0.017438726499676704,-0.019854135811328888,-0.002928020665422082,0.011247580870985985,-0.041486650705337524,-0.015328560955822468,0.001676353975199163,-0.024684954434633255,-0.0012956283753737807,-0.038938526064157486,0.008234954439103603,-0.02484421245753765,0.00878572091460228,-0.0024253632873296738,-0.014505729079246521,-0.006065066903829575,-0.011174587532877922,0.01734582521021366,-0.03214352950453758,-0.027843568474054337,-0.013895240612328053,-0.0017800374189391732,0.02925034426152706,0.023158734664320946,0.03126760944724083,0.01678842306137085,0.015461275354027748,0.015063131228089333,-0.00614801375195384,-0.023676322773098946,-0.012004055082798004,-0.017677612602710724,-0.036841630935668945,0.00718650734052062,0.016629166901111603,0.04132739454507828,0.00021649104019161314,-0.00026542964042164385,-0.005686829797923565,0.004844090901315212,-0.0087658129632473,0.015076402574777603,-0.008307946845889091,-0.01575324870646,-0.005189149174839258,0.008984792977571487,0.0013876992743462324,0.009734631516039371,-0.003375933039933443,-0.004114159382879734,0.02582630328834057,0.0026725444477051497,0.001731928321532905,-0.022614603862166405,0.03551448509097099,-0.021406900137662888,0.018978217616677284,0.00498012313619256,-0.008035882376134396,-0.008845441974699497,-0.01839427277445793,-0.020318638533353806,-0.0012491781963035464,0.005447943229228258,-0.020756596699357033,-0.023065835237503052,-0.007266135886311531,-0.016483180224895477,-0.015487818978726864,0.011957604438066483,-0.021287456154823303,-0.009575373493134975,-0.016987496986985207,-0.0031453410629183054,-0.01058400608599186,-0.015633804723620415,-0.039416298270225525,-0.005836133845150471,-0.008035882376134396,0.03418733552098274,-0.03283364325761795,0.024419525638222694,-0.0012806979939341545,-0.04061073437333107,-0.008533562533557415,-0.02818862721323967,0.016695523634552956,-0.0009737949585542083,0.03232932835817337,-0.004572025500237942,-0.003928358666598797,-0.006211053114384413,0.030949095264077187,0.00019046649686060846,-0.014333199709653854,0.021141469478607178,0.007299314718693495,0.0008029246237128973,0.0002961199206765741,-0.006967527791857719,0.03227624297142029,-0.006834812927991152,-0.025773216038942337,0.029383059591054916,0.014917144551873207,0.0028102360665798187,-0.013868697918951511,-0.006615833379328251,0.008599920198321342,0.01136038824915886,-0.03384227678179741,0.00037595618050545454,-0.006612515542656183,-0.02375595085322857,-0.05024582892656326,0.01832791604101658,-0.004323184955865145,0.018235014751553535,0.02585284598171711,-0.02382230944931507,-0.0024203862994909286,-0.015275474637746811,0.010365027002990246,0.03381573408842087,-0.00025837915018200874,0.015713434666395187,-0.02327817864716053,0.0016547878040000796,0.01280697900801897,0.0036894718650728464,-0.001334613305516541,-0.007730637677013874,0.013424103148281574,0.022627875208854675,-0.006529568694531918,-0.0032083806581795216,-0.004313231445848942,0.007398850750178099,0.039973702281713486,0.0018115572165697813,-0.019243648275732994,-0.011167951859533787,-0.018434086814522743,-0.00601861672475934,0.007485115434974432,-0.00917722936719656,-0.014930416829884052,-0.009316579438745975,-0.00640680780634284,-0.02038499526679516,-0.002923043677583337,0.003570028580725193,-0.010418112389743328,0.028905285522341728,-0.012654357589781284,-0.006738594733178616,0.013238302432000637,0.008732634596526623,-0.0138288838788867,-0.0017601301660761237,0.002660932019352913,0.03535522520542145,-0.010703450068831444,0.02639697678387165,0.016708794981241226,-0.005607200786471367,-0.009688181802630424,0.001456545083783567,0.010550827719271183,0.003490399569272995,0.025799760594964027,-0.03333796188235283,-0.026768578216433525,0.0035600748378783464,0.00219643022865057,0.0051161558367311954,-0.008560105226933956,-0.0111281368881464,0.025680316612124443,-0.021313998848199844,-0.006015298888087273,-0.017757242545485497,-0.032541673630476,0.0021250960417091846,0.014147398993372917,0.013921784237027168,0.024711498990654945,-0.024963656440377235,-0.001626585959456861,-0.016695523634552956,-0.019004762172698975,0.024392982944846153,-0.033258333802223206,-0.0038686369080096483,0.022163374349474907,0.008692820556461811,-0.01916401833295822,-0.01600540615618229,-0.0204778965562582,-0.02996700443327427,-0.017186569049954414,0.03336450457572937,0.0087658129632473,-0.00854019820690155,0.04424711689352989,0.00698079913854599,0.003239900339394808,-0.006380264647305012,-0.014890601858496666,0.004830819088965654,-0.008792356587946415,0.023158734664320946,-0.003457220969721675,0.014996773563325405,-0.024671683087944984,0.031134895980358124,0.002959540346637368,-0.018235014751553535,-0.020557524636387825,-0.009303308092057705,-0.025215813890099525,0.012461921200156212,0.0010708426125347614,0.025534329935908318,0.043026141822338104,-0.008301311172544956,0.03304598852992058,0.03649657219648361,-0.0069940704852342606,0.03572682663798332,-0.004482442978769541,-0.015328560955822468,-0.020079750567674637,-0.02066369727253914,-0.010079690255224705,-0.015620533376932144,-0.030869465321302414,0.008838806301355362,0.001040981849655509,0.008891892619431019,0.015036588534712791,0.017239654436707497,-0.02123437076807022,0.00044044730020686984,-0.012800343334674835,0.0040079872123897076,0.016217749565839767,0.020039936527609825,0.022070473060011864,-0.03153304010629654,0.002279376843944192,-0.00030482932925224304,0.02613154612481594,-0.0040975697338581085,-0.016655709594488144,-0.0016970906872302294,0.0013329543871805072,0.010511012747883797,-0.006045159883797169,0.006934348959475756,0.01653626561164856,-0.029595403000712395,0.015952320769429207,-0.01240219920873642,-0.025189271196722984,0.006794998422265053,0.01394832693040371,0.0020371724385768175,-0.030338605865836143,-0.0045620715245604515,-0.028400970622897148,0.0029645171016454697,0.002994377864524722,-0.02325163595378399,0.02407446689903736,-0.023397620767354965,0.018712788820266724,-0.015846148133277893,-0.00814868975430727,0.005600565113127232,-0.0005789683782495558,-0.0026625909376889467,0.01187133975327015,0.017651069909334183,0.005577340256422758,0.015647076070308685,-0.010557463392615318,0.003596571506932378,-0.015832876786589622,-0.02200411632657051,-0.0061148349195718765,-0.028268255293369293,-0.010431384667754173,0.007909802719950676,-0.01684151031076908,-0.014771158806979656,0.02717999368906021,0.003125433810055256,-0.01580633409321308,-0.011380295269191265,0.1881365180015564,-0.005099566653370857,-0.023609966039657593,0.02073005400598049,-0.023092377930879593,0.017266197130084038,-6.516504799947143e-05,0.035275597125291824,0.0006366163725033402,0.01624429225921631,-0.019336547702550888,-0.006350403651595116,-0.013258209452033043,-0.00633049663156271,0.016629166901111603,-0.006814905442297459,-0.02299947664141655,-0.016748609021306038,-0.005152652505785227,0.04576006904244423,0.013417467474937439,-0.0062840464524924755,0.0019061164930462837,-0.011148043908178806,-0.006386900320649147,-0.007883260026574135,-0.0037558292970061302,-0.02172541432082653,-0.00023411722213495523,-0.008891892619431019,-0.013278117403388023,0.013656354509294033,0.008825534954667091,-0.01396159827709198,-0.006138060241937637,0.007651009131222963,0.028400970622897148,-0.013125495053827763,-2.685401341295801e-05,0.008998064324259758,0.030471321195364,-0.0030209210235625505,0.025813031941652298,-0.002191453240811825,-0.001740223029628396,0.013868697918951511,0.00893170665949583,-0.0108693428337574,-0.0032100395765155554,0.007272771559655666,-0.01758471317589283,-0.00478436890989542,0.023105649277567863,0.024101009592413902,0.015501090325415134,-0.011970875784754753,0.0021201190538704395,0.016337193548679352,0.0077173663303256035,-0.007538201287388802,-0.015580719336867332,0.024658411741256714,-0.015527633018791676,0.029542317613959312,-0.03872618079185486,0.029542317613959312,-0.031904641538858414,-0.002123437123373151,0.007929709739983082,-0.03647002950310707,0.0005864335689693689,-0.03822186589241028,-0.008142054080963135,0.01706712506711483,-0.010716721415519714,-0.035010166466236115,0.01446591503918171,-0.013722711242735386,0.035275597125291824,0.019721420481801033,0.008633098565042019,-0.006025252398103476,-0.009349758736789227,-0.029356516897678375,-0.010816257447004318,-0.02975466102361679,0.015434732660651207,-0.006934348959475756,-0.014943688176572323,-0.005348407197743654,0.008188503794372082,-0.021101655438542366,-0.008002703078091145,0.011035236530005932,0.009734631516039371,0.0004566218995023519,0.0004927037516608834,0.028294797986745834,-0.01988067850470543,0.016907867044210434,-0.015819605439901352,-0.05255506560206413,0.02556087262928486,-0.014983502216637135,-0.00010575711348792538,-0.012322570197284222,0.0005710884579457343,0.022946391254663467,-0.002458541886880994,-0.018964946269989014,-0.014651715755462646,-0.0175316259264946,-0.003132069483399391,-0.00907105766236782,0.010285397991538048,0.008686184883117676,0.0065793367102742195,0.0025580779183655977,0.0014507387531921268,0.012329205870628357,0.0013702803989872336,-0.019482534378767014,-0.005560750607401133,0.011625817976891994,-0.005590611603111029,-0.013550182804465294,-0.04116813465952873,0.024167368188500404,-0.0034970352426171303,-0.018925132229924202,0.016177935525774956,-0.015673618763685226,-0.0035733464173972607,0.005089613143354654,-0.013696168549358845,0.048228561878204346,0.010119504295289516,-0.0038122329860925674,0.012707442976534367,-0.011705446057021618,0.011148043908178806,0.0018480537692084908,-0.004668243695050478,0.001708703231997788,0.013112223707139492,-0.02635716274380684,0.022933119907975197,0.004572025500237942,0.002646001521497965,0.004114159382879734,-0.018460631370544434,-0.004465853329747915,0.003643021686002612,-0.010298669338226318,0.02430008165538311,0.008619827218353748,-0.026012104004621506,-0.00466492585837841,-0.0028102360665798187,0.016682252287864685,-0.0383014939725399,-0.018261557444930077,0.036629289388656616,-0.033444132655858994,0.004734600894153118,-0.002660932019352913,-0.1682823896408081,0.025494515895843506,-0.002080304780974984,-0.00645989365875721,-0.0004968511057086289,-0.0017435408663004637,0.020544253289699554,-0.0040212590247392654,-0.006041842047125101,-0.03490399569272995,0.012335841543972492,0.005895855370908976,-0.02200411632657051,-0.0032199930865317583,-0.040451474487781525,-0.025905931368470192,-0.04188479483127594,0.0023888666182756424,0.02428681030869484,0.018712788820266724,0.012375656515359879,-0.024446068331599236,0.020106295123696327,-0.0051559703424572945,-0.005922398529946804,0.0046914685517549515,0.00542140007019043,0.007060428149998188,-0.00904451496899128,-0.023477250710129738,0.00478436890989542,0.002718994626775384,0.008500384166836739,0.008201775141060352,0.005600565113127232,0.0053152283653616905,0.005414764396846294,0.00287991133518517,-0.02407446689903736,0.009734631516039371,0.017425455152988434,0.040743447840213776,0.025149457156658173,-0.0008925071451812983,-0.01934981904923916,0.03134723752737045,0.010457927361130714,-0.01680169627070427,0.0032896683551371098,-0.000976283336058259,-0.005501029081642628,-0.021300727501511574,0.012335841543972492,-0.003563392674550414,-0.02460532635450363,0.01600540615618229,0.0062840464524924755,-0.003075665794312954,0.01252164226025343,0.00852692686021328,-0.039203956723213196,0.007159964181482792,-0.0013843814376741648,0.010146047919988632,0.004077662713825703,-0.030312063172459602,-0.018248286098241806,0.0059489416889846325,-0.01887204684317112,0.008838806301355362,-0.01808902993798256,-0.01705385372042656,0.005053116474300623,-0.019057847559452057,-0.0024784491397440434,-0.007816902361810207,-0.009701453149318695,-0.017226383090019226,0.001278209500014782,0.020345181226730347,-0.015633804723620415,0.021619243547320366,-0.021393628790974617,0.007153328508138657,0.0019310005009174347,0.008473840542137623,-0.006008663214743137,-0.006303953472524881,-0.010398205369710922,-0.0010069736745208502,0.00483745476230979,-0.038168780505657196,0.009774445556104183,-0.018726060166954994,0.00640680780634284,0.002519922563806176,0.0019492488354444504,-0.0025580779183655977,-0.0351959690451622,-0.0222562737762928,0.0030640531331300735,-0.010146047919988632,-0.009754538536071777,0.01446591503918171,0.01783687062561512,0.016615893691778183,0.02582630328834057,0.01575324870646,0.06561420112848282,-0.01177843939512968,0.011440017260611057,0.006031888071447611,0.013616539537906647,0.02483094111084938,-0.023941751569509506,0.004290006123483181,-0.01355681847780943,-0.012329205870628357,0.017889956012368202,0.004946944769471884,0.029860833659768105,0.005159288179129362,0.027259621769189835,0.0028815704863518476,0.009608552791178226,-0.007193143013864756,-0.11434708535671234,-0.02325163595378399,0.018473902717232704,0.02019919455051422,-0.001405947608873248,0.02460532635450363,0.010676906444132328,0.021632514894008636,0.013656354509294033,0.025388343259692192,0.004359681624919176,-0.02481766976416111,0.010511012747883797,0.009535559453070164,0.03262130171060562,0.017213111743330956,0.029303431510925293,-0.008958250284194946,-0.015527633018791676,0.01808902993798256,0.007816902361810207,0.007909802719950676,-0.007836809381842613,-0.021114926785230637,0.0027123589534312487,-0.007485115434974432,-0.022415531799197197,0.01891186088323593,0.014505729079246521,-0.0006341279949992895,0.00907105766236782,-0.012720715254545212,0.013351109810173512,-0.013868697918951511,-0.032435499131679535,-0.010676906444132328,-0.02451242506504059,0.016695523634552956,0.021566156297922134,-0.009515652433037758,-0.006672237068414688,-0.010391569696366787,0.01136038824915886,-0.01702731102705002,-0.0053152283653616905,-0.020557524636387825,-0.01191779039800167,0.034266963601112366,-0.010384934023022652,-0.005510982591658831,-0.008248225785791874,-0.006682191044092178,-0.004807594232261181,-0.008633098565042019,0.017385641112923622,-0.023065835237503052,0.020902583375573158,0.03432004898786545,0.005179195664823055,-0.007325857877731323,-0.016403550282120705,-0.0016556172631680965,-0.0037790543865412474,-0.01676188036799431,0.007962889038026333,-0.005089613143354654,-0.0037724184803664684,0.003603207180276513,0.01727946847677231,0.01255482155829668,0.0008609873475506902,0.014452642761170864,0.0011761849746108055,0.018314644694328308,-0.01787668466567993,-0.014293385669589043,-0.03896506875753403,0.013503732159733772,0.005919080693274736,-0.025162728503346443,-0.0059522595256567,-0.012395563535392284,-0.0012815274531021714,-0.005073023959994316,0.009907160885632038,0.03562065586447716,0.011665632016956806,0.0034472672268748283,0.001033516600728035,-0.0020122884307056665,0.004542164504528046,0.01228275615721941,0.01810230128467083,-0.015328560955822468,0.006559429690241814,0.015448004007339478,0.010849435813724995,-0.00790316704660654,-0.037107061594724655,-0.00153700343798846,-0.025773216038942337,-0.011061779223382473,-0.0665697529911995,0.01734582521021366,-0.002106847707182169,0.0018281465163454413,0.023477250710129738,-0.019973579794168472,-0.021141469478607178,-0.020093021914362907,-0.017743971198797226,0.007199778687208891,-0.0019011397380381823,0.03575336933135986,0.01021904032677412,0.006207735277712345,-0.015063131228089333,-0.015700163319706917,0.011950968764722347,0.016974223777651787,0.0031818377319723368,0.007869988679885864,-0.0065793367102742195,0.009455930441617966,0.005603882949799299,0.00969481747597456,-0.03896506875753403,0.020783139392733574,0.001424195826984942,0.015209117904305458,-0.0003508647787384689,0.00041722218156792223,-0.01137365959584713,-0.017014039680361748,-0.013085681013762951,0.016350464895367622,-0.008434026502072811,0.014784430153667927,0.005726644303649664,0.013530274853110313,0.0013536910992115736,0.05122791603207588,-0.02299947664141655,-0.020743325352668762,0.03278055787086487,0.022388989105820656,0.004293324425816536,-0.012601271271705627,0.0035335319116711617,0.012355749495327473,0.013231666758656502,-0.013815611600875854,0.012574728578329086,0.029409602284431458,0.028560228645801544,-0.04084961861371994,-0.021406900137662888,-0.019230376929044724,0.015686890110373497,0.026038646697998047,0.00022748149058315903,-0.01705385372042656,0.043795887380838394,0.012017326429486275,0.019323276355862617,-0.03792989253997803,0.026556234806776047,-0.008049153722822666,-0.020318638533353806,-0.01861988753080368,-0.0027123589534312487,-0.01394832693040371,-0.009011335670948029,-0.007982796058058739,0.005812908988445997,0.027339251711964607,0.008653005585074425,0.0020603975281119347,0.0051559703424572945,-0.010484470054507256,-4.175850699539296e-05,0.0360984280705452,-0.013722711242735386,0.00919050071388483,-0.02970157563686371,0.01729273982346058,0.007465208414942026,0.001431661075912416,-0.01306577306240797,0.0160452201962471,-0.015647076070308685,0.011844797059893608,0.0007328346255235374,0.00484740873798728,0.011473195627331734,-0.008613191545009613,-0.024897299706935883,0.018487174063920975,0.00788989569991827,-0.0007548155263066292,-0.009820896200835705,0.011194494552910328,0.0034207243006676435,0.010252219624817371,-0.007140057161450386,-0.013337838463485241,0.005988755729049444,0.012004055082798004,-0.018566802144050598,-0.02763122320175171,-0.003010967280715704,-0.009608552791178226,0.005786365829408169,0.007478479761630297,-0.00023660562874283642,0.006738594733178616,-0.0017302694031968713,0.0170803964138031,-0.017770513892173767,-0.02063715271651745,-0.03129415214061737,-0.001196921686641872,0.024485882371664047,0.014439371414482594,0.030205892398953438,-0.0038984976708889008,0.02248188853263855,-0.00517255999147892,0.005232281517237425,-0.014943688176572323,-0.0074983867816627026,-0.009097600355744362,0.014970230869948864,0.013470553793013096,0.008573376573622227,-0.006486436352133751,-0.011824890039861202,0.013132130727171898,0.03360339254140854,0.02045135200023651,-0.017929771915078163,0.08833497762680054,0.0021980891469866037,-0.039708271622657776,0.023424165323376656,0.012475192546844482,0.028082454577088356,0.003002672689035535,0.0019326594192534685,-0.0056602866388857365,-0.008984792977571487,0.02220318838953972,-0.004366317298263311,0.031692296266555786,-0.03211698308587074,-0.02922380156815052,0.010179226286709309,0.010305305011570454,0.02789665386080742,-0.04103542119264603,0.009110871702432632,0.022442074492573738,-0.01176516804844141,0.00787662435323,0.008593284524977207,-0.050006940960884094,-0.0242602676153183,0.0010028262622654438,-0.012196491472423077,-0.02771085314452648,-0.03025897778570652,0.0008692819974385202,-0.020053207874298096,-0.047697704285383224,0.0030773247126489878,0.0018679610220715404,-0.0056934654712677,-0.0029545635916292667,-0.013629810884594917,0.0026294123381376266,0.02248188853263855,-0.004621793515980244,0.005036527290940285,-0.018752602860331535,-0.018779145553708076,0.028241712599992752,-0.01536837499588728,0.010703450068831444,-0.009157322347164154,-0.0027687628753483295
1830_Sue-Eugene_Kernok-le-Pirate.txt_chunk_1,-0.00816334504634142,0.0033658200409263372,0.015223357826471329,-0.007644515950232744,-0.010632707737386227,0.020779423415660858,-0.010685247369110584,0.013010125607252121,-0.010980782099068165,-0.034360919147729874,0.012195761315524578,0.015735618770122528,0.001357821049168706,-0.014014946296811104,-0.006531332619488239,-0.012977288104593754,0.04565693810582161,0.010021934285759926,0.0007449955446645617,-0.016930894926190376,-0.01125661563128233,0.0003665460099000484,0.009818343445658684,0.011033321730792522,-0.012504431419074535,-0.01454034261405468,0.0193345844745636,-0.027924813330173492,0.0017173890955746174,-0.011571853421628475,0.009443998336791992,0.012681753374636173,-0.01983371004462242,0.0013701349962502718,-0.0355955995619297,-0.03538544103503227,-0.01712791994214058,0.00035053782630711794,0.01454034261405468,-0.004951859824359417,0.0121694914996624,0.0014152862131595612,0.0006107731605879962,-0.009660724550485611,-0.022473827004432678,0.011788579635322094,-0.009148462675511837,0.004653040785342455,-0.021777676418423653,0.016549983993172646,0.02679521031677723,0.011598123237490654,-0.007316143251955509,-0.0012437115656211972,0.0021212876308709383,-0.01809990219771862,-0.014474667608737946,0.01924263872206211,0.016773276031017303,0.0010663903085514903,0.008938304148614407,-0.004942008759826422,-0.016812682151794434,-0.005799061618745327,-0.006790746934711933,-0.007204496767371893,0.004518408328294754,0.00020892711472697556,-0.018927400931715965,0.0006181615754030645,0.020122677087783813,0.030998380854725838,0.005707117263227701,-0.017627045512199402,0.0411122590303421,-0.02051672525703907,-0.022237397730350494,-0.0007946618716232479,-0.030341636389493942,0.025494854897260666,-0.004249142482876778,-0.009838045574724674,-0.02089763805270195,0.019176965579390526,0.0073883854784071445,-0.006324457935988903,-0.012392785400152206,0.009601617231965065,-0.04287233576178551,-0.004337802994996309,0.0013290884671732783,0.032837267965078354,-0.023091167211532593,-0.0017781381029635668,0.0031638708896934986,-0.010494790971279144,-0.024050015956163406,0.032705917954444885,-0.00551009364426136,0.0009580273181200027,-0.01057360041886568,-0.00010415571159683168,-0.0019259058171883225,-0.015958912670612335,-0.021895891055464745,-0.005089776590466499,0.005854885093867779,-0.00834723375737667,0.029947588220238686,-0.025245292112231255,-0.004679310601204634,0.027662115171551704,0.02060866914689541,-0.02144930325448513,-0.005690698511898518,-0.03218052163720131,-0.020976446568965912,0.006948365829885006,0.018007958307862282,-0.0383276604115963,-0.004912455100566149,0.02085823193192482,-0.009884017519652843,0.003851811634376645,0.020845098420977592,0.016668196767568588,-0.013489549979567528,-0.0101926876232028,-0.014028080739080906,0.002088450361043215,0.012701455503702164,0.0009432505466975272,-0.01758764125406742,-0.010560465045273304,-0.0101926876232028,0.015958912670612335,-0.027162987738847733,-0.0011575137032195926,-0.013345065526664257,-0.023918665945529938,0.02531096711754799,0.020070137456059456,-0.003566127270460129,-0.0014210328226909041,0.009266677312552929,0.04171646386384964,0.02064807340502739,0.009181300178170204,0.01409375574439764,-0.009542509913444519,0.02369537204504013,-0.03683027997612953,0.016773276031017303,-0.0064984955824911594,0.010691814124584198,0.018047362565994263,-0.0030308798886835575,0.015840698033571243,-0.009884017519652843,0.0051948558539152145,-0.0015958911972120404,0.012859074398875237,0.020490454509854317,-0.012176059186458588,0.02068747952580452,0.032075442373752594,0.005822047591209412,-0.008636201731860638,-0.005959964357316494,-0.02152811363339424,0.006987770553678274,0.021173469722270966,-0.026598187163472176,0.029106954112648964,0.022959817200899124,0.018979940563440323,0.012767129577696323,-0.0032820850610733032,-0.02645370364189148,-0.0042754122987389565,-0.04253083094954491,-0.010744353756308556,0.027110448107123375,0.04239948093891144,-0.003543141297996044,0.00394047237932682,0.026085926219820976,0.0070600127801299095,-0.01561740506440401,-0.02114720083773136,-0.002508767182007432,-0.003920769784599543,-0.012996991164982319,-0.022815333679318428,-0.6586368083953857,0.003213126678019762,-0.008780685253441334,0.001751868287101388,0.01523649226874113,0.010251794941723347,0.027478225529193878,0.008150209672749043,-0.03746075555682182,0.01750883087515831,-0.024851243942975998,0.011427368968725204,0.0011657230788841844,-0.00475812004879117,-0.01577502302825451,-0.024365253746509552,0.018887996673583984,-0.010186120867729187,0.033126235008239746,0.017154188826680183,-0.025626204907894135,0.017246132716536522,0.011112131178379059,0.02552112564444542,0.00538202840834856,-0.006140569224953651,0.006222662515938282,-0.028266320005059242,-0.015380976721644402,0.004925590008497238,-0.025232156738638878,0.02081882767379284,-0.009910287335515022,-0.021803945302963257,0.0621543824672699,-0.0003304250130895525,-0.0069943382404744625,0.06430850923061371,0.017495697364211082,0.020411645993590355,0.018979940563440323,-0.006908961106091738,0.008320963941514492,-7.552572060376406e-05,0.026729537174105644,0.0036843414418399334,0.02683461643755436,0.013476414605975151,-0.015144548378884792,-0.015078873373568058,0.03612099587917328,-0.02750449627637863,-0.020831963047385216,0.013909867033362389,0.004505273420363665,-0.009128760546445847,0.03769718483090401,-0.027399417012929916,0.002687730360776186,0.01750883087515831,-0.004058686550706625,0.0052244095131754875,0.001881575444713235,-0.006383564788848162,-0.024233903735876083,0.010961079970002174,-0.0041440632194280624,-0.000515545136295259,0.01392300147563219,-0.011795146390795708,0.002922516781836748,0.022789064794778824,-0.02339326962828636,-0.018152441829442978,0.0043706404976546764,0.03199663385748863,0.018113037571310997,0.0024381671100854874,-0.014592882245779037,-0.004281979985535145,-0.0005089776823297143,-0.0005188288632780313,-0.035122741013765335,0.006685667671263218,0.035674408078193665,-0.008918602019548416,-0.02098958194255829,0.02064807340502739,-0.0022263668943196535,-0.0006087208748795092,-0.02154124714434147,0.03394060209393501,0.01703597418963909,-0.019728630781173706,0.011407666839659214,0.04828391969203949,-0.00770362326875329,0.0010195971699431539,0.0049026040360331535,-0.04021908715367317,-0.0010860926704481244,-0.01543351635336876,0.015092008747160435,-0.0005664429045282304,0.005135748535394669,-0.026479972526431084,0.01102018728852272,0.01729867234826088,0.02344580926001072,-0.020976446568965912,-0.005185004789382219,-0.004761403892189264,0.013489549979567528,-0.02416822873055935,-0.004679310601204634,-0.021120930090546608,-0.002988191321492195,0.0031622289679944515,0.013831057585775852,-0.020411645993590355,0.015131413005292416,0.005789210554212332,0.006426253356039524,-0.010297766886651516,0.021212875843048096,0.013476414605975151,-0.002912665717303753,-0.010494790971279144,-0.006068326998502016,-0.0014743932988494635,0.0017091798363253474,0.003559559816494584,0.017272403463721275,-0.0016361168818548322,0.020148947834968567,-0.0037959881592541933,0.019991328939795494,-0.00584831740707159,0.03231187164783478,-0.029264573007822037,-0.02670326642692089,-0.005352474749088287,0.00341179221868515,0.005795777775347233,-0.017705855891108513,-0.04733820632100105,-0.025678744539618492,-0.02102898620069027,-0.05532423034310341,-0.0069943382404744625,0.0006665965192951262,0.008925169706344604,-0.028712907806038857,0.00011903509584954008,-0.0009793714853003621,0.022578906267881393,-0.02390553057193756,-0.015840698033571243,-0.029395923018455505,-0.012478161603212357,0.004456017166376114,0.00883979257196188,0.012149789370596409,0.0008455596398562193,-0.00036818787339143455,0.008110805414617062,-0.004390342626720667,0.007500031962990761,-0.011144968681037426,-0.02340640500187874,0.025613069534301758,-0.013857327401638031,0.0036219507455825806,0.022263668477535248,-0.007651083637028933,0.033809252083301544,-0.03859035670757294,-0.012248300947248936,-0.0070600127801299095,0.009529375471174717,0.015118278563022614,0.00365150417201221,-0.019255774095654488,0.0008164165774360299,0.020148947834968567,-0.011131834238767624,0.002323236782103777,0.03060433454811573,-0.029185764491558075,0.021081525832414627,0.02789854258298874,-0.02517961710691452,0.0090696532279253,-0.005316353868693113,-0.01619534008204937,0.013082367368042469,0.010901972651481628,0.022907277569174767,-0.027031639590859413,0.0265850517898798,-0.0010146716376766562,0.023800451308488846,0.028371399268507957,0.007953186519443989,0.004751552827656269,-0.019518472254276276,0.015315301716327667,0.0017124635633081198,0.030630603432655334,-0.006340876687318087,-0.021606922149658203,-0.014317048713564873,-0.016247879713773727,-0.008898899890482426,0.015972048044204712,0.032469492405653,0.010067906230688095,-0.0032656663097441196,0.03950979933142662,0.028161240741610527,-0.002556381281465292,9.061033779289573e-05,-3.506917710183188e-05,0.011630960740149021,-0.02213231846690178,-0.017600776627659798,0.003559559816494584,0.003457764396443963,-0.007112552411854267,-0.037539564073085785,-0.009056518785655499,0.00617997394874692,0.00964102242141962,0.015788158401846886,0.03123481012880802,0.01836260035634041,0.013804787769913673,-0.013187446631491184,0.016129666939377785,0.0038813650608062744,0.02559993416070938,0.020569264888763428,0.017430022358894348,0.005670996382832527,-0.004058686550706625,0.01350268442183733,0.03472869470715523,0.002554739359766245,-0.013364768587052822,0.001883217366412282,0.007782432716339827,0.011611257679760456,-0.009076220914721489,-0.002211590064689517,-0.007296441122889519,-0.005313070025295019,-0.009003979153931141,0.03748702630400658,0.02755703590810299,0.03241695091128349,0.011361694894731045,0.007572274189442396,-0.00598951755091548,0.02603338658809662,0.010645842179656029,-0.0233144611120224,-0.0009317575022578239,-0.026204140856862068,0.013088935054838657,-0.0014185699401423335,-0.016418633982539177,-0.012813102453947067,0.01214322168380022,-0.007749595213681459,0.009352054446935654,-0.033888060599565506,0.0066002910025417805,0.009857747703790665,-0.029238304123282433,0.004446166101843119,-0.020319702103734016,-0.023261921480298042,0.019465932622551918,0.04229440167546272,-0.00394047237932682,-0.013660303317010403,-0.0141594298183918,0.02784600295126438,-0.025205887854099274,0.013200582005083561,-0.008189614862203598,0.015328437089920044,-0.0028437073342502117,-0.020083272829651833,-0.012517566792666912,-0.012445325031876564,0.013896731659770012,-0.029895048588514328,0.02768838405609131,-0.007828405126929283,-0.0027123582549393177,-0.018467679619789124,-0.0202146228402853,-0.007421222515404224,0.0207268837839365,-0.014382723718881607,-0.027951082214713097,-0.022657714784145355,-0.014881850220263004,-0.01388359721750021,-0.0020178500562906265,0.012543836608529091,0.007040310185402632,0.004787673708051443,0.017942283302545547,-0.0031326753087341785,-0.004390342626720667,0.012130087241530418,0.04951860010623932,-0.0004580798849929124,-0.012622646056115627,-0.03391433134675026,-0.010750921443104744,0.007467194925993681,0.06730326265096664,0.029553541913628578,0.004075104836374521,-9.153388236882165e-05,0.01779779978096485,0.004557813052088022,-0.010527628473937511,-0.023130571469664574,0.022618310526013374,-0.00998252909630537,0.011197508312761784,-0.012872208841145039,0.027924813330173492,-0.02377418242394924,0.021002717316150665,-0.019098155200481415,0.005746521987020969,-0.02119974046945572,0.01602458767592907,0.02030656673014164,0.008609931915998459,-0.0050930604338645935,0.009141895920038223,0.02475930005311966,0.0008816806366667151,-0.010711517184972763,0.0172592680901289,0.013161176815629005,0.005592186935245991,-0.007165092043578625,-0.009398026391863823,0.009811775758862495,0.00858366210013628,-0.0017403751844540238,-0.011729472316801548,-0.01979430578649044,0.015000063925981522,0.030919572338461876,-0.010882270522415638,-0.005142316222190857,0.017324943095445633,0.0215806532651186,0.012642348185181618,-0.007710190489888191,0.022027239203453064,-0.014908120036125183,-0.01186738908290863,0.008143642917275429,-0.012865642085671425,-0.01648430898785591,0.026099061593413353,-0.006488644052296877,-0.006784179713577032,-0.013391038402915001,0.009003979153931141,0.006705370265990496,-0.02013581246137619,0.012944451533257961,-0.002518618479371071,-0.0029652053490281105,0.011112131178379059,-0.02734687738120556,-0.0064098346047103405,-0.004262277390807867,-0.010514493100345135,-0.046182334423065186,5.028206578572281e-05,0.005086492747068405,-0.023892397060990334,0.005368893500417471,-0.013791652396321297,-0.026952829211950302,-0.008511420339345932,-0.004971562419086695,0.01598518155515194,0.022500095888972282,0.008307828567922115,-0.01958414725959301,-0.0074540600180625916,0.0150263337418437,0.010048204101622105,0.0003437651612330228,-0.010560465045273304,-0.02310430258512497,0.0050963438116014,0.017193593084812164,0.0014062559930607677,-0.013167744502425194,0.012202329002320766,-0.021935295313596725,0.028003621846437454,-0.007611678913235664,0.003615383291617036,-0.007447492331266403,-0.013325363397598267,0.004751552827656269,0.020976446568965912,0.003145810216665268,0.0030489403288811445,-0.016523713245987892,0.025718148797750473,-0.0264142993837595,-0.003016103059053421,-0.007611678913235664,0.027478225529193878,-0.009082788601517677,-0.005398446694016457,-0.009332351386547089,0.0012404278386384249,-0.01627415046095848,0.01979430578649044,-0.023248786106705666,-0.013128340244293213,0.0065641701221466064,-0.009489970281720161,0.01657625287771225,0.009358621202409267,0.017403751611709595,-0.02022775635123253,-0.016050856560468674,-0.018638433888554573,-0.020451050251722336,0.010264930315315723,-0.007014040369540453,-0.010087608359754086,0.0030883450526744127,-0.0252190213650465,-0.01498692948371172,0.00041354435961693525,-0.0033001455012708902,0.013542089611291885,0.02093704231083393,-0.009503105655312538,-0.012701455503702164,-0.027740923687815666,-0.017535101622343063,0.0024381671100854874,-0.012648915871977806,-0.009404594078660011,0.0048664831556379795,-0.03522782027721405,-0.022605175152420998,-0.005345907062292099,-0.02565247379243374,-0.0025416044518351555,-0.029737429693341255,0.00017239565204363316,-0.033467743545770645,0.0022509947884827852,0.007394952699542046,-0.0031425266060978174,-0.005152167286723852,-0.020148947834968567,0.020871367305517197,-0.026204140856862068,-0.020923906937241554,-0.0017370914574712515,-0.0006711116875521839,0.02839767001569271,0.01831006072461605,0.025836363434791565,0.015367841348052025,0.014211969450116158,0.02900187484920025,-0.0167470071464777,-0.015380976721644402,-0.014868714846670628,-0.018559623509645462,-0.0366201214492321,0.012859074398875237,0.01239935215562582,0.04121733829379082,0.0024759299121797085,-0.007184794172644615,-0.010993917472660542,0.019255774095654488,-0.005470688920468092,-0.004636622499674559,-0.005913991946727037,-0.015972048044204712,-0.008196182548999786,0.0028519167099148035,0.01817871257662773,0.004459301009774208,-0.009273244999349117,0.0006452522939071059,0.020398510619997978,0.0024792137555778027,0.0073227109387516975,-0.019662955775856972,0.045551858842372894,-0.008826658129692078,0.022276801988482475,0.014251374639570713,0.0028617680072784424,-0.016037721186876297,-0.01581442914903164,-0.019636686891317368,0.0009284737752750516,0.016339825466275215,-0.01284593902528286,-0.01823125220835209,-0.007979456335306168,0.005703833419829607,-0.01916383020579815,0.002735344460234046,-0.024903783574700356,-0.02133108861744404,-0.01809990219771862,0.0022871156688779593,-0.008747848682105541,-0.01034373976290226,-0.019781170412898064,-0.013752248138189316,-0.018966807052493095,0.015341571532189846,-0.030972111970186234,0.021186605095863342,-0.005447702948004007,-0.032233063131570816,0.0033559687435626984,-0.016930894926190376,0.020805692300200462,0.002968488959595561,0.0202146228402853,0.01454034261405468,-0.001343865180388093,-0.006688951514661312,0.033205047249794006,-0.0003447913040872663,-0.011841119267046452,0.018467679619789124,0.0006932768155820668,-0.00385837908834219,-0.01350268442183733,0.0005245753563940525,0.03822258114814758,-0.007184794172644615,-0.017403751611709595,0.03680400922894478,0.02500886283814907,0.0006739849341101944,-0.01903248019516468,0.002183678327128291,0.0023774183355271816,0.02047732099890709,-0.02251323126256466,0.0030275960452854633,-0.013489549979567528,-0.013870461843907833,-0.05196169391274452,0.012694887816905975,-0.00010723420564318076,0.010737787000834942,0.01042911596596241,-0.026926560327410698,0.01827065646648407,-0.014185699634253979,0.006304755341261625,0.03617353364825249,0.0043772077187895775,0.03835393115878105,-0.024444062262773514,-0.0002561307046562433,0.015577999874949455,-0.006817016750574112,-0.001993222162127495,-0.0052605303935706615,0.023590292781591415,0.022237397730350494,-0.014120025560259819,-0.011158104054629803,-0.002648325636982918,0.0014801399083808064,0.019859978929162025,-0.011998738162219524,-0.016549983993172646,-0.007460627239197493,-0.02487751469016075,-0.0049387249164283276,0.013804787769913673,-0.009089356288313866,-0.01084943301975727,-0.006777612026780844,-0.0066298446618020535,-0.027268067002296448,-0.0013602838153019547,-0.0002850685268640518,-0.00930608157068491,0.04187408462166786,-0.011663797311484814,-0.014947524294257164,0.01686522178351879,0.0006243185489438474,-0.015696214511990547,-0.001554844668135047,-0.0023495065979659557,0.030000127851963043,-0.006186541169881821,0.022605175152420998,0.02531096711754799,-0.0002522312570363283,-0.017482561990618706,-0.01040941383689642,0.0062062437646090984,0.023301325738430023,0.022539500147104263,-0.036777742207050323,-0.009568779729306698,0.00792691670358181,0.009562212973833084,0.009549077600240707,0.004994548391550779,-0.013831057585775852,0.01729867234826088,-0.02302549220621586,-0.006478792987763882,-0.01916383020579815,-0.03530663251876831,-0.009148462675511837,0.008728145621716976,0.014763635583221912,0.023721642792224884,-0.02700536884367466,0.0033510432112962008,-0.004327951930463314,-0.006744774989783764,0.015604269690811634,-0.026650726795196533,0.006035489961504936,0.007933484390377998,0.005237544421106577,-0.03260083869099617,-0.022276801988482475,-0.0158932376652956,-0.02525842748582363,-0.007887511514127254,0.026979099959135056,0.005237544421106577,-0.01798168756067753,0.029527271166443825,0.008215884678065777,0.000507746241055429,-0.009844613261520863,-0.005253962706774473,0.005162018351256847,-0.00862963404506445,0.009693561121821404,-0.00417690072208643,0.009601617231965065,-0.02169886603951454,0.04413328692317009,-0.011939630843698978,-0.02009640820324421,-0.011965900659561157,0.015144548378884792,-0.029816240072250366,-0.0032476058695465326,-0.011854253709316254,0.02598084695637226,0.039404720067977905,-0.0018323195399716496,0.019045615568757057,0.021015850827097893,-0.0030472984071820974,0.021895891055464745,-0.005168586038053036,-0.007375250570476055,-0.015183952637016773,-0.01430391427129507,-0.012353380210697651,-0.011768876574933529,-0.04021908715367317,0.0011304229265078902,0.026099061593413353,0.002888037823140621,0.00517186988145113,0.017955418676137924,-0.030367905274033546,-0.010731219314038754,-0.008701875805854797,0.021462438628077507,0.025363506749272346,0.004741701763123274,0.022486960515379906,-0.03131362050771713,0.009115626104176044,-0.01827065646648407,0.016300419345498085,0.002998042618855834,0.013128340244293213,-0.0069943382404744625,-0.0018667987314984202,-0.002640116261318326,-0.02708417922258377,-0.005749805830419064,0.01648430898785591,-0.01861216314136982,0.022670850157737732,-0.02183021605014801,-0.03596337512135506,0.0018750079907476902,0.004147347062826157,0.0026532511692494154,-0.03149750828742981,-0.0019242638954892755,-0.03446599841117859,0.00947683583945036,0.005306502338498831,-0.027662115171551704,0.02148870751261711,-0.01561740506440401,0.022316208109259605,-0.006764477118849754,-0.00922070536762476,-0.0042754122987389565,-0.0217514056712389,-0.004935441538691521,0.006002652458846569,0.02276279404759407,-0.008760983124375343,0.011144968681037426,-0.010251794941723347,0.0069352309219539165,-0.006915528792887926,-0.015039469115436077,-0.010534195229411125,-0.0321279838681221,-0.0033313408493995667,0.0006945081986486912,-0.008445745334029198,-0.012629213742911816,0.018796052783727646,0.006784179713577032,-0.015499190427362919,-0.009818343445658684,0.1913493275642395,-0.010934810154139996,-0.018769782036542892,0.0042458586394786835,-0.008958007209002972,0.00977237056940794,0.008058265782892704,0.02005700394511223,0.0012075905688107014,0.006298188120126724,-0.03128734976053238,-0.01716732420027256,-0.018704108893871307,-0.00482051121070981,0.010842866264283657,0.0013446861412376165,-0.027189258486032486,-0.029369652271270752,-0.003308354876935482,0.03052552416920662,0.013817922212183475,-0.004616919904947281,0.0008980992715805769,-0.01258980855345726,-0.009870883077383041,0.004531543236225843,-0.004354221746325493,-0.024562276899814606,0.005611889064311981,0.005280232522636652,-0.017141053453087807,-0.0040488350205123425,0.0034019409213215113,-0.012090682052075863,-0.006314606871455908,0.008018860593438148,0.032154254615306854,-0.004104658495634794,-0.011709770187735558,-0.0015622330829501152,0.013259689323604107,-0.0011509462492540479,0.016681332141160965,-0.010586734861135483,0.0064755091443657875,0.017141053453087807,0.005168586038053036,-0.006117583252489567,-0.013154610060155392,0.009233839809894562,-0.01695716567337513,0.002398762386292219,0.022565770894289017,0.02632235363125801,0.02475930005311966,-0.022710254415869713,0.007355547975748777,0.012294272892177105,0.01042911596596241,-0.006058475933969021,-0.009391458705067635,0.009437430649995804,-0.027031639590859413,0.03517528250813484,-0.020661208778619766,0.03386178985238075,-0.0300526674836874,-0.006291620433330536,0.0011763951042667031,-0.035464249551296234,0.013936136849224567,-0.03241695091128349,0.0038255418185144663,0.022145453840494156,-0.022920412942767143,-0.02318311110138893,0.02114720083773136,-0.011125266551971436,0.008997411467134953,0.016090260818600655,-0.003937188535928726,0.0007023070938885212,0.002556381281465292,-0.0070665800012648106,0.01320714969187975,-0.03026282601058483,0.0158932376652956,-0.007368682883679867,-0.015538595616817474,0.0061110155656933784,0.010632707737386227,-0.014277644455432892,-0.012747427448630333,-0.005185004789382219,0.0037073276471346617,-0.012136653997004032,0.006091313436627388,0.025245292112231255,-0.03288980945944786,0.007368682883679867,-0.015919508412480354,-0.06683041155338287,0.017246132716536522,-0.0008197003044188023,-0.005454270169138908,-0.00749346474185586,0.013909867033362389,0.024220768362283707,-0.015380976721644402,-0.013318795710802078,-0.02081882767379284,-0.014842445030808449,0.0004896857426501811,-0.006889258977025747,0.02280219830572605,0.010258362628519535,0.005641442723572254,-0.004147347062826157,0.003579262178391218,-0.004613636061549187,0.006817016750574112,-0.016392365097999573,-0.0031211823225021362,0.003697476349771023,-0.0025678742676973343,-0.010094176046550274,-0.03365163132548332,0.013489549979567528,-0.011539015918970108,-0.019150694832205772,0.019216369837522507,-0.004682594444602728,0.01869097352027893,0.020070137456059456,-0.007532869465649128,0.030131477862596512,0.011630960740149021,0.007828405126929283,-0.010777191258966923,-0.008662471547722816,0.007624813821166754,0.002136064227670431,-0.01767958514392376,0.006764477118849754,0.019846845418214798,-0.015656810253858566,0.01010731142014265,0.004935441538691521,-0.0013627465814352036,-0.003615383291617036,-0.021606922149658203,-0.02000446431338787,0.0011213927064090967,-0.011821416206657887,0.03060433454811573,-0.00728987343609333,-0.035254091024398804,-0.013725978322327137,0.012839372269809246,0.009608184918761253,-0.037198059260845184,-0.0136471688747406,0.03667266294360161,-0.02068747952580452,0.008741280995309353,6.916349957464263e-05,-0.16634047031402588,0.01665506325662136,-0.009043383412063122,-0.007552571594715118,0.0050339531153440475,-0.0033691036514937878,0.022316208109259605,0.002359357662498951,0.0021294967737048864,-0.033257585018873215,0.0048664831556379795,-0.006830151658505201,-0.022408151999115944,0.004505273420363665,-0.02662445791065693,-0.01669446751475334,-0.02004386857151985,0.00542800035327673,0.03162885829806328,0.020792558789253235,0.01102018728852272,-0.028345130383968353,0.016116531565785408,-0.010212390683591366,-0.01061957236379385,0.00898427702486515,0.01457974687218666,-0.005122613627463579,-0.0017469426384195685,-0.017430022358894348,0.002108152722939849,-0.0023068180307745934,-0.00438705924898386,0.006688951514661312,0.005162018351256847,-0.0006218557828105986,0.008288126438856125,-0.0021705434191972017,-0.009746100753545761,0.024352118372917175,0.02565247379243374,0.02510080859065056,0.02415509521961212,-0.004249142482876778,-0.024772435426712036,0.034019410610198975,0.007966320961713791,-0.015525460243225098,0.007841539569199085,0.008879197761416435,0.003644936718046665,-0.016799546778202057,0.02577068842947483,-0.002888037823140621,-0.010672111995518208,0.002817437518388033,0.003674490377306938,-0.0033953734673559666,0.01195276528596878,0.005050371866673231,-0.03598964586853981,0.012156357057392597,0.011414234526455402,0.005181720945984125,0.0020933758933097124,-0.028161240741610527,-0.015249627642333508,0.014290778897702694,-0.005247395485639572,0.019045615568757057,-0.0032377545721828938,-0.026138465851545334,0.005615172907710075,-0.020910771563649178,0.001988296629860997,0.001467005000449717,-0.010048204101622105,-0.017784664407372475,-0.004702297039330006,0.012176059186458588,-0.018467679619789124,0.0338355228304863,-0.0127802649512887,0.0012584882788360119,-0.007151957135647535,0.009483403526246548,-0.011630960740149021,-0.001005641301162541,-0.011394532397389412,-0.006061759777367115,0.012504431419074535,-0.028634097427129745,0.01606399193406105,-0.009109058417379856,0.0046694595366716385,0.0008172375382855535,-0.0014382723020389676,0.00531963724642992,-0.018467679619789124,-0.0037040438037365675,-0.0052900840528309345,-0.002761614276096225,-0.01543351635336876,0.030157746747136116,0.024233903735876083,0.014474667608737946,0.013594629243016243,0.0009063085890375078,0.043476544320583344,-0.01127631776034832,0.00909592304378748,0.004922306630760431,0.010179553180932999,0.007211063988506794,-0.034229569137096405,0.019859978929162025,-0.016471173614263535,-0.013331931084394455,0.029868779703974724,0.00308998697437346,0.0424782894551754,0.0017912730108946562,0.03659385070204735,-0.0016451471019536257,0.0012625929666683078,-0.011506178416311741,-0.12809161841869354,-0.005897573195397854,0.022434420883655548,0.024233903735876083,-0.00293072615750134,0.02517961710691452,0.009437430649995804,0.015354706905782223,0.010100743733346462,0.018388871103525162,0.00395360728725791,-0.028240051120519638,0.010205822996795177,-0.007092849817126989,0.0359371080994606,0.02242128737270832,0.03131362050771713,0.0026384745724499226,-0.01197903510183096,0.014120025560259819,0.004111226182430983,0.0034643318504095078,0.003782853251323104,-0.022657714784145355,0.0054575540125370026,-0.0007232408388517797,-0.0158932376652956,0.013095502741634846,0.002648325636982918,0.006137285381555557,-0.0037303136195987463,-0.013489549979567528,0.011827983893454075,-0.013936136849224567,-0.02051672525703907,-0.013568359427154064,-0.033888060599565506,0.012806534767150879,0.0034511969424784184,-0.008846360258758068,-0.011919928714632988,-0.00010784990445245057,0.013555224053561687,-0.025875767692923546,-0.006127434317022562,-0.019176965579390526,-0.00651819771155715,0.03759210556745529,0.00594354560598731,-0.002874902915209532,-0.0010877344757318497,-0.007664218544960022,-0.004308249801397324,-0.030840761959552765,0.0233144611120224,-0.0027583304326981306,0.021173469722270966,0.018375735729932785,0.010698381811380386,0.003257456934079528,-0.01561740506440401,0.015354706905782223,-0.0038813650608062744,-0.02230307273566723,0.013410740531980991,0.01568307913839817,-0.0067973146215081215,-0.005854885093867779,0.013988676480948925,0.00903024896979332,0.01129601988941431,0.0020096409134566784,-0.004511840641498566,0.021226009353995323,-0.03162885829806328,-0.0006312964833341539,-0.051646456122398376,-0.004295114893466234,0.0045085567981004715,-0.020753152668476105,-0.00605190871283412,-0.01865156926214695,0.0024151811376214027,-0.0009793714853003621,0.012097249738872051,0.032364413142204285,0.01967609114944935,0.00417690072208643,-0.007677353452891111,0.0014046141877770424,0.014881850220263004,0.002285473980009556,0.010724651627242565,-0.01572248339653015,-0.004373924341052771,0.010199255309998989,0.006019071210175753,-0.011460206471383572,-0.029133224859833717,-0.0107903266325593,-0.035201553255319595,-0.014566612429916859,-0.06446612626314163,0.005917275790125132,-0.006698802579194307,0.010757489129900932,0.03131362050771713,-0.02407628484070301,-0.008708443492650986,-0.014527207240462303,-0.0184808149933815,-0.0062784855253994465,0.002641758183017373,0.02590203657746315,0.014908120036125183,0.0012272929307073355,-0.02034597098827362,-0.003697476349771023,0.005401730537414551,0.008294694125652313,0.006255499552935362,-0.004042267799377441,-0.0101926876232028,0.018454544246196747,-0.013555224053561687,0.013299093581736088,-0.03430837765336037,0.02076628804206848,0.003126107854768634,0.014198835007846355,0.00788094475865364,-0.0003766024310607463,-0.011026754975318909,-0.022749658674001694,-0.008905467577278614,0.021475574001669884,-0.018388871103525162,0.0010450460249558091,0.013023260980844498,0.01481617521494627,0.007427790202200413,0.05209304392337799,-0.014881850220263004,-0.024982593953609467,0.039825037121772766,-0.0015819354448467493,0.005667712539434433,-0.010954512283205986,0.002705790800973773,0.01750883087515831,0.01911129057407379,-0.016944030299782753,0.019006211310625076,0.029658621177077293,0.016182206571102142,-0.035332899540662766,-0.021567517891526222,0.006248932331800461,0.01167693268507719,0.019150694832205772,0.011768876574933529,-0.004157198127359152,0.04006146639585495,0.025849496945738792,0.022316208109259605,-0.02670326642692089,0.026309220120310783,-0.008623066358268261,-0.013804787769913673,-0.013660303317010403,-0.007894079200923443,-0.017994822934269905,-0.005831898655742407,-0.005864736158400774,0.0019620268139988184,0.027451956644654274,0.012346812523901463,0.0022214411292225122,-0.003484034212306142,-0.022145453840494156,-0.0020260594319552183,0.03596337512135506,-0.017456291243433952,0.010586734861135483,-0.018533354625105858,0.008215884678065777,0.013450144790112972,0.011098996736109257,-0.016300419345498085,0.013391038402915001,-0.011204075999557972,0.01543351635336876,0.012918181717395782,0.0016352959210053086,-0.0015671586152166128,-0.012471594847738743,-0.021462438628077507,0.02152811363339424,0.0013512535952031612,0.008242154493927956,-0.005569200497120619,0.0067973146215081215,-0.0023380136117339134,-0.0034216432832181454,-0.0008057444938458502,-0.011965900659561157,0.00773646030575037,0.012090682052075863,-0.02636175975203514,-0.015538595616817474,0.010737787000834942,-0.01540724653750658,0.005418149288743734,0.021738272160291672,-0.00454796152189374,0.012320542708039284,0.005789210554212332,0.0016755216056481004,0.0020900920499116182,-0.01682581566274166,-0.023879261687397957,-0.001226471969857812,0.024746164679527283,0.01809990219771862,0.033599093556404114,-0.019124425947666168,-0.0019094871822744608,-0.005565917119383812,-0.006948365829885006,-0.008701875805854797,-0.008728145621716976,-0.0172592680901289,0.005234260577708483,0.019899385049939156,-0.009555645287036896,0.006948365829885006,-0.009929989464581013,-0.006455807015299797,0.024746164679527283,0.02043791487812996,-0.02708417922258377,0.07791627198457718,0.0025448882952332497,-0.035122741013765335,0.023747911676764488,0.013844192028045654,0.031182270497083664,0.003868230152875185,-0.003930620849132538,-0.008038563653826714,-0.010507925413548946,0.01852021925151348,-0.002848633099347353,0.023550888523459435,-0.04539423808455467,-0.02687402069568634,0.018887996673583984,-0.0017929148161783814,0.030000127851963043,-0.038301389664411545,0.01526276208460331,0.029054414480924606,-0.007999158464372158,0.006455807015299797,0.009568779729306698,-0.05479883402585983,-0.027819734066724777,0.011788579635322094,-0.0043410868383944035,-0.009076220914721489,-0.040928371250629425,0.008912034332752228,-0.019846845418214798,-0.041611384600400925,-0.014343318529427052,0.004065253771841526,-0.007605111226439476,0.00475812004879117,-0.0011599764693528414,0.010987349785864353,0.025245292112231255,-0.005352474749088287,0.010205822996795177,-0.002011282602325082,-0.013857327401638031,0.043213844299316406,-0.012918181717395782,0.008754415437579155,0.00488618528470397,0.005700549576431513
1830_Sue-Eugene_Kernok-le-Pirate.txt_chunk_10,-0.018137799575924873,0.0006394414231181145,0.009646622464060783,-0.01160147413611412,-0.005320421420037746,0.014792383648455143,-0.0026266220957040787,0.0037921436596661806,0.011473838239908218,-0.027394795790314674,0.006254182197153568,0.027502279728651047,0.004379943013191223,-0.0064758663065731525,0.00028487262898124754,-0.007624593563377857,0.03917764872312546,0.010063120163977146,0.009465244598686695,-0.0177884791046381,-0.017990009859204292,0.0033890814520418644,0.004487426020205021,0.012232938781380653,-0.02676333114504814,-0.017667559906840324,0.01825871877372265,-0.020502431318163872,-0.009451809339225292,-0.008296363987028599,0.01836620271205902,0.008914392441511154,-0.02116076648235321,-0.006029139272868633,-0.03412593528628349,-0.02528543770313263,-0.010976728051900864,-0.005034918896853924,-0.0004895526799373329,-0.0023595935199409723,0.009975790046155453,0.0027710527647286654,-0.0031590000726282597,-0.007523828186094761,-0.023216383531689644,0.009626469574868679,-0.006801675073802471,0.00653632590547204,-0.031197015196084976,0.024936115369200706,0.028724901378154755,0.006848698947578669,-0.018661780282855034,-0.0031321293208748102,0.0026971581391990185,-0.006946105509996414,-0.013368230313062668,0.023135771974921227,0.011964229866862297,-0.002497306326404214,0.006301206070929766,-0.0042791771702468395,-0.014268402941524982,7.174297934398055e-05,-0.0046654450707137585,-0.0073155793361365795,0.0057738665491342545,-0.018043752759695053,-0.015531331300735474,4.093600728083402e-05,0.029450412839651108,0.009727234952151775,0.010466182604432106,-0.013677245005965233,0.05298924818634987,-0.01095657516270876,-0.020515866577625275,-0.017157014459371567,-0.02837558090686798,0.015826910734176636,-0.00044798688031733036,-0.004561320878565311,-0.01831245981156826,0.019037973135709763,0.00996235478669405,0.006019062362611294,0.002618225058540702,0.010996880941092968,-0.041676633059978485,-0.014644593931734562,-0.015222316607832909,0.02661554142832756,-0.012105301953852177,0.005041636526584625,-0.0023663111496716738,0.0005995550309307873,-0.013153264299035072,0.029826603829860687,-0.01675395295023918,-0.026884250342845917,0.004111234564334154,-0.0003841686702799052,-0.02271927334368229,-0.01765412464737892,-0.030820824205875397,-0.02219529263675213,0.006613579113036394,-0.008733014576137066,0.018943924456834793,-0.007161071989685297,0.008900957182049751,0.022020632401108742,0.0031119761988520622,-0.023780671879649162,-0.009666775353252888,-0.023565704002976418,0.00448406720533967,0.0016802656464278698,0.01140666101127863,-0.04463242366909981,0.002347837435081601,0.019252939149737358,-0.008699426427483559,0.0024099762085825205,0.01788252778351307,0.02637370489537716,-0.005182708613574505,-0.007329014595597982,-0.020703962072730064,0.0006843660376034677,-0.0025157800409942865,-0.0019682871643453836,0.006825186777859926,-0.010842373594641685,-0.024613667279481888,0.00918310135602951,-0.013079369440674782,0.007725359406322241,-0.00825605820864439,-0.034985799342393875,0.00759100541472435,0.012515082024037838,-0.006395253818482161,-0.0258631594479084,0.010425875894725323,0.027341054752469063,0.011205130256712437,0.01698235422372818,-0.0031841916497796774,-0.005330497864633799,0.025070469826459885,-0.02292080596089363,0.008356823585927486,-0.020247159525752068,0.008350105956196785,0.033803485333919525,-0.0010949857532978058,0.02249087207019329,-0.0017348469700664282,0.013825034722685814,-0.00918310135602951,0.004030622076243162,0.036087505519390106,-0.015034221112728119,0.023659752681851387,0.037834107875823975,-0.004363148473203182,-0.006650526542216539,-0.00326816295273602,-0.03383035585284233,-0.0019313398515805602,0.03259429708123207,-0.03278239443898201,0.019441034644842148,-0.0025107418186962605,0.018903618678450584,0.02140260487794876,-0.007631311658769846,-0.038075946271419525,-0.0016592728206887841,-0.04189160093665123,-0.031277626752853394,0.014308708719909191,0.0284561924636364,0.008383694104850292,0.01259569451212883,8.612305828137323e-05,0.003212741808965802,0.009028594009578228,-0.02472114935517311,0.014698335900902748,0.0018960718298330903,-0.018419943749904633,-0.007201378233730793,-0.6466192603111267,-0.01496704388409853,-0.009995942935347557,0.012179196812212467,0.010587100870907307,0.017143579199910164,0.018513990566134453,0.014147483743727207,-0.011561168357729912,0.038828328251838684,-0.025030164048075676,0.010210909880697727,-0.007664899807423353,0.008874086663126945,-0.020475560799241066,-0.012098584324121475,0.00678488053381443,0.008934546262025833,0.03947322815656662,0.013838469982147217,-0.015531331300735474,0.010197474621236324,0.01675395295023918,0.01764068938791752,0.024076249450445175,0.001299035968258977,0.016431502997875214,-0.02680363692343235,-0.0007763146422803402,0.00021034809469711035,-0.021416040137410164,0.018540862947702408,0.00718794297426939,0.002443564822897315,0.06577975302934647,-0.012938297353684902,-0.009465244598686695,0.05755728483200073,0.02419716864824295,0.01964256539940834,-3.547787127899937e-05,-0.012447904795408249,0.01859460398554802,-0.012897991575300694,0.01266958937048912,0.010533359833061695,0.01750633679330349,0.0004341315943747759,0.0036376365460455418,0.004924076609313488,0.03286300599575043,-0.021174201741814613,-0.015692556276917458,0.011158105917274952,0.008027656003832817,0.011379790492355824,0.04022561013698578,-0.014617723412811756,0.010439311154186726,0.009834717959165573,-0.02196689136326313,0.0007544821128249168,0.008941263891756535,-0.003943291958421469,-0.031062662601470947,0.01425496768206358,-0.0033689283300191164,0.01674051769077778,0.0355769582092762,-0.01238072756677866,0.0072752730920910835,0.01484612561762333,-0.029154833406209946,-0.012763637118041515,-0.007947043515741825,0.014926738105714321,0.01964256539940834,-0.008054526522755623,-0.0036409953609108925,-0.0001358235749648884,0.004087722860276699,0.00250234454870224,-0.03710859641432762,0.010378852486610413,0.02751571498811245,-0.007671617437154055,-0.025581015273928642,0.01022434514015913,-0.011547733098268509,-0.007167790085077286,-0.012064996175467968,0.022853627800941467,0.01735854707658291,-0.001231019152328372,0.0008241782779805362,0.03737730532884598,1.1336124771332834e-05,0.007523828186094761,0.010808785445988178,-0.030955178663134575,0.022947676479816437,-0.01070130243897438,0.017801914364099503,-0.008638966828584671,0.007758948020637035,-0.0064355600625276566,0.00441353116184473,0.019320115447044373,0.037081725895404816,-0.04511609673500061,-0.008618813939392567,0.0008577667758800089,0.016216536983847618,-0.01022434514015913,-0.00574027793481946,-0.02130855619907379,0.005585770588368177,-0.007913455367088318,0.005323780234903097,-0.039258260279893875,0.0010865885997191072,-0.006281053181737661,0.006166852079331875,-0.011843311600387096,0.0244390070438385,0.006600143853574991,0.0053036268800497055,-0.011729110963642597,-0.00435307202860713,-0.014913301914930344,-0.00279960292391479,-0.011104363948106766,0.013133110478520393,-0.006139981094747782,0.019481340423226357,0.018917053937911987,0.03372287377715111,-0.008793474175035954,0.018849875777959824,-0.02138916775584221,-0.030229667201638222,-0.010708020068705082,-0.0010488014668226242,0.0020640145521610975,-0.0006087918882258236,-0.047319505363702774,-0.035173896700143814,-0.026924556121230125,-0.05094706639647484,0.001409878022968769,-0.01166865136474371,-0.0053842393681406975,-0.019199198111891747,0.00540775153785944,0.004608344752341509,0.008746449835598469,-0.02979973331093788,-0.010822220705449581,-0.013341359794139862,-0.012508364394307137,0.006354947574436665,0.02026059478521347,-0.009055464528501034,0.014402756467461586,0.0032463304232805967,-0.007181225344538689,0.01846024952828884,0.0034243494737893343,-0.01589408703148365,-0.018984230235219002,0.027435101568698883,-0.005296909250319004,0.005259961821138859,0.014174355193972588,-0.00646243104711175,0.03270178288221359,-0.04492800310254097,-0.014080307446420193,-0.009975790046155453,0.00811498612165451,0.010049684904515743,0.020475560799241066,-0.02472114935517311,0.009095771238207817,0.02219529263675213,0.007046871352940798,0.020126240327954292,0.03971506282687187,-0.019320115447044373,0.014066871255636215,0.011131235398352146,-0.026158738881349564,0.008477741852402687,-0.0031170144211500883,0.0009295622585341334,0.010654278099536896,0.001457741716876626,0.019427599385380745,-0.01703609712421894,0.028348710387945175,0.024640537798404694,0.02434495836496353,0.03595314919948578,-0.003997033927589655,0.004030622076243162,-0.015316364355385303,0.023565704002976418,0.008363541215658188,0.04339636489748955,-0.020153110846877098,-0.005841043312102556,0.0003934055275749415,-0.027058910578489304,-0.0034109139814972878,0.019185760989785194,0.02642744593322277,-0.005192785058170557,0.0038223734591156244,0.030041571706533432,0.003913062624633312,-0.010089990682899952,-0.007329014595597982,-0.0010152129689231515,0.014241531491279602,-0.03877458721399307,0.001430031144991517,0.0118634644895792,-0.006496019661426544,-0.004178411792963743,-0.0374847874045372,-0.020233724266290665,0.008860651403665543,-0.005354010034352541,0.020327771082520485,0.018943924456834793,0.020381513983011246,0.018903618678450584,-0.003462976310402155,0.008242622017860413,0.003029684303328395,0.017922833561897278,0.01178956963121891,0.018728958442807198,-0.01416091900318861,0.019427599385380745,0.00415154080837965,0.029289187863469124,0.008249340578913689,-0.013516020029783249,0.015773167833685875,0.009572727605700493,0.0010387249058112502,-0.021214507520198822,-0.002337760990485549,0.0032648039050400257,-0.008988287299871445,0.008739732205867767,0.034851446747779846,0.008390411734580994,0.02869803085923195,0.012199349701404572,-0.0025208182632923126,-0.005196143873035908,0.01584034599363804,0.02039494924247265,-0.014053435996174812,-0.008121703751385212,-0.014402756467461586,0.006650526542216539,0.005021483637392521,-0.011796288192272186,-0.01278379000723362,0.015101398341357708,-0.0047426987439394,0.011614909395575523,-0.01973661407828331,0.010708020068705082,-0.006959541235119104,-0.019387293606996536,0.011675368994474411,-0.013959388248622417,-0.02447931282222271,0.028348710387945175,0.02400907315313816,0.002184933051466942,-0.012864402495324612,-0.014993914403021336,0.0189707949757576,-0.02086518704891205,0.026924556121230125,-0.009942201897501945,0.020126240327954292,-0.005390957463532686,-0.00653632590547204,-0.01240759901702404,-0.011225283145904541,0.014872996136546135,-0.017801914364099503,0.03428715839982033,-0.030525246635079384,-0.023310432210564613,-0.02627965621650219,-0.01086252648383379,-0.001215904369018972,0.038586489856243134,0.0060627274215221405,-0.018325895071029663,-0.020233724266290665,0.0009891819208860397,-0.012750201858580112,-0.0019985169637948275,0.007738794665783644,-0.014953608624637127,-0.003724966663867235,-0.013757857494056225,0.012253091670572758,-0.009162947535514832,-0.0139996949583292,0.040628671646118164,0.004064210690557957,-0.019897839054465294,-0.035173896700143814,-0.011520861648023129,-0.006381818559020758,0.05943824350833893,0.03643682599067688,-0.008054526522755623,-0.01378472801297903,0.016633033752441406,0.005686536431312561,-0.00014422069943975657,-0.020798010751605034,0.01949477568268776,-0.02419716864824295,0.015625378116965294,0.001949813449755311,0.029289187863469124,-0.02751571498811245,0.0272738765925169,-0.012978603132069111,0.0027559378650039434,-0.03331981226801872,0.013757857494056225,-0.018043752759695053,-0.00646243104711175,-0.0005710048135370016,-0.013529455289244652,0.03302423283457756,-0.009881742298603058,-0.023941896855831146,0.023646317422389984,0.011991101317107677,0.016874872148036957,0.0017037775833159685,-0.013549608178436756,0.011117799207568169,0.013878775760531425,0.002453641267493367,0.0008493696805089712,-0.027193265035748482,0.01641806773841381,0.022544613108038902,-0.00963318720459938,0.0013267465401440859,0.005115531384944916,0.010143732652068138,0.01911858469247818,-0.02500329352915287,0.02528543770313263,0.007241684477776289,-0.00355702405795455,0.017089838162064552,-0.01459085289388895,-0.01821841299533844,0.034932058304548264,-0.002587995259091258,-0.01688830740749836,-0.021469781175255775,0.018084058538079262,0.009364479221403599,-0.008007503114640713,0.018016882240772247,0.003115335013717413,0.01641806773841381,0.01765412464737892,-0.02462710253894329,-0.004285894799977541,-0.004242229741066694,-0.022262470796704292,-0.040628671646118164,-0.00989517755806446,-0.0022605073172599077,-0.030632728710770607,0.009828000329434872,-0.01508796215057373,-0.011702239513397217,-0.022464001551270485,0.008175445720553398,-0.0031237322837114334,0.016203101724386215,0.014066871255636215,-0.017721302807331085,-0.013549608178436756,0.004326201044023037,0.014537110924720764,-0.008813627064228058,0.006008985918015242,-0.03031027875840664,0.008430718444287777,0.006818469148129225,0.002693799091503024,-0.012723330408334732,0.012340421788394451,-0.0031741149723529816,0.020556174218654633,-0.005286832805722952,0.013509302400052547,-0.0008027656003832817,-0.00540775153785944,-0.004010469187051058,0.017251063138246536,-0.01926637440919876,-0.00012879096902906895,-0.018487120047211647,0.014214660972356796,-0.02826809696853161,-0.004111234564334154,0.0016357608838006854,0.032191235572099686,-0.017895963042974472,0.0031371675431728363,-0.001778512028977275,-0.012562106363475323,-0.0010042967041954398,0.015464154072105885,-0.017573513090610504,-0.026252785697579384,-0.020717399194836617,-0.007638029288500547,-0.004332918673753738,0.007281990721821785,0.017049532383680344,-0.0006428002961911261,0.005219655577093363,-0.013166699558496475,-0.020139675587415695,0.00013047040556557477,0.004635215736925602,-0.0118567468598485,0.0009648302220739424,-0.03358851745724678,-0.015679121017456055,0.008712861686944962,0.003291674889624119,0.019709743559360504,0.017183886840939522,-0.011722393333911896,-0.028805512934923172,-0.02528543770313263,-0.015867216512560844,0.01207171380519867,-0.010781914927065372,0.003829091088846326,0.0013788086362183094,-0.03407219424843788,-0.008692708797752857,0.0020035551860928535,-0.013717550784349442,-0.0003043959441129118,-0.028241226449608803,0.006579990964382887,-0.01945446990430355,0.009780976921319962,0.007765665650367737,-0.0031035791616886854,0.0031438854057341814,-0.005689895246177912,0.002357914112508297,-0.014980479143559933,-0.023323867470026016,-0.01093642134219408,-0.003479770617559552,0.04877052828669548,0.01788252778351307,0.01997845061123371,-0.001528277643956244,0.006180287338793278,0.02286706306040287,-0.012031407095491886,-0.014308708719909191,-0.013825034722685814,-0.009196536615490913,-0.03993003070354462,0.024640537798404694,0.0175600778311491,0.030713342130184174,0.007470086682587862,-0.007886583916842937,0.005434622522443533,0.010546795092523098,-0.004225435666739941,0.026118431240320206,-0.0029222010634839535,0.003075028769671917,-0.007584287319332361,-0.0011184976901859045,0.02086518704891205,-0.01641806773841381,0.0013989617582410574,-0.006395253818482161,0.00765146454796195,-0.0064926608465611935,0.006811751518398523,-0.014550546184182167,0.04183785989880562,-0.014805818907916546,0.019279809668660164,-0.007604440674185753,0.019279809668660164,0.0044404021464288235,-0.005972038488835096,-0.019629130139946938,-0.005914938170462847,0.0016550743021070957,-0.02078457549214363,-0.012844249606132507,-0.00799406785517931,-0.001331784762442112,-0.019951580092310905,-0.00013949732237961143,-0.02541979029774666,-0.004557962063699961,0.004940871149301529,0.0033605312928557396,-0.019333550706505775,-0.031197015196084976,-0.03221810609102249,0.00494758877903223,-0.018285589292645454,0.042429015040397644,-0.02528543770313263,0.025124212726950645,-0.021886277943849564,-0.03861336037516594,-0.007013282738626003,-0.00982128269970417,0.03667866066098213,-0.0005680657923221588,0.03315858542919159,0.011070775799453259,-0.004628497641533613,0.004531091079115868,0.029719121754169464,0.01921263337135315,-0.012172479182481766,0.011493991129100323,0.0006234868778847158,0.005988833028823137,3.246015330660157e-05,-0.007584287319332361,0.033615387976169586,0.009169665165245533,-0.01726449839770794,0.050597745925188065,-0.0009379593539051712,-0.00388955045491457,-0.02457335963845253,0.01178956963121891,-0.005011407192796469,0.026723025366663933,-0.01936042122542858,0.010828938335180283,-0.0022739428095519543,-0.02575567550957203,-0.04181098937988281,0.02523169480264187,0.0072752730920910835,0.016498681157827377,0.010472900234162807,-0.0336960032582283,0.008995004929602146,-0.016955483704805374,-0.00396008649840951,0.02091892994940281,-0.009875024668872356,0.02856367640197277,-0.036839887499809265,-0.004678880795836449,0.025675063952803612,0.005602565128356218,-0.0036779427900910378,-0.007987349294126034,0.006771445274353027,0.022517742589116096,-0.004900564905256033,-0.002781129442155361,-0.0005306985694915056,-0.003993674647063017,0.039500098675489426,0.00488712964579463,0.006727780215442181,-0.014644593931734562,0.0018204976804554462,-0.0052767563611269,0.015947828069329262,-0.005589129403233528,0.005031560081988573,-0.007335732690989971,-0.008289646357297897,-0.03444838523864746,-0.004961024038493633,0.009001722559332848,-0.011648498475551605,0.022638661786913872,-0.019629130139946938,-0.01551789604127407,0.00435307202860713,0.02708578109741211,-0.004242229741066694,0.003483129432424903,0.002678684424608946,0.02007249929010868,-0.004450478591024876,0.03372287377715111,0.004561320878565311,-0.031761303544044495,-0.02794564701616764,-0.003966804128140211,0.01207171380519867,0.017721302807331085,0.026306528598070145,-0.04842120781540871,-0.01878269948065281,-0.012011254206299782,0.00153331586625427,-0.008027656003832817,0.0030431197956204414,-0.004987895023077726,0.0018305742414668202,-0.026293091475963593,-0.013509302400052547,-0.022477436810731888,-0.03563069924712181,-0.0008262775372713804,0.005706689320504665,0.013408537022769451,0.0279993899166584,-0.03896268084645271,-0.0030128902290016413,-0.016055312007665634,-0.022705838084220886,0.010822220705449581,-0.025070469826459885,-0.005414469167590141,0.019602259621024132,-0.0004912320873700082,-0.020999541506171227,-0.025957206264138222,-0.014335580170154572,-0.022746145725250244,-0.014671465381979942,0.02357913926243782,0.01036541722714901,-0.025392919778823853,0.02993408776819706,0.007805971894413233,0.008659119717776775,-0.00011493571219034493,-0.0055051581002771854,0.0018624833319336176,-0.00996235478669405,-0.008289646357297897,-0.005753713194280863,-0.0009715479100123048,-0.010419158264994621,0.030149053782224655,0.003980239387601614,-0.025298872962594032,-0.020139675587415695,0.009001722559332848,-0.025366049259901047,0.008135139010846615,-0.007281990721821785,0.04549229145050049,0.031949397176504135,0.0057570720091462135,0.019414164125919342,0.022316211834549904,-0.004870335105806589,0.029960958287119865,-0.001738205784931779,-0.026131868362426758,-0.002814717823639512,-0.023686623200774193,-0.012696459889411926,-0.014604288153350353,-0.028724901378154755,0.011621627025306225,0.004416889976710081,-0.002614866243675351,0.006163493264466524,0.008981569670140743,-0.013112957589328289,-0.0039869570173323154,-0.0014090383192524314,0.006583349779248238,0.022880498319864273,-0.010244498029351234,0.023606011644005775,-0.023256691172719002,-0.009854871779680252,-0.0006411208305507898,0.013442125171422958,-0.030444633215665817,0.007658182177692652,-0.0003892069507855922,0.005720124579966068,-3.476936399238184e-06,-0.010540077462792397,0.013892211019992828,0.03208375349640846,-0.01977691985666752,0.034314028918743134,-0.015396976843476295,-0.025621322914958,0.00396008649840951,0.016915177926421165,0.00633479468524456,-0.0272738765925169,0.008067961782217026,-0.03420654684305191,0.00514576118439436,0.003593971487134695,-0.024089684709906578,0.02059647999703884,-0.04164976254105568,0.0038324499037116766,0.00041502813110128045,-0.009834717959165573,-0.0062508233822882175,-0.0012604091316461563,0.00832995306700468,0.016619598492980003,0.01477894838899374,-0.0037115314044058323,0.012441187165677547,-0.010405723005533218,0.01608218252658844,-0.008618813939392567,-0.019320115447044373,-0.006358306389302015,-0.019991885870695114,-0.01036541722714901,-0.02192658558487892,-0.007140919100493193,-0.01850055530667305,0.02637370489537716,0.02648118883371353,-0.02637370489537716,0.006052650976926088,0.1949746310710907,-0.023122336715459824,0.0006969617679715157,0.01333464216440916,0.004114593379199505,0.010022814385592937,0.013690680265426636,0.04643276706337929,-0.01155445072799921,0.013173417188227177,-0.016901742666959763,-0.023162642493844032,-0.02590346522629261,-0.0059821149334311485,-0.0002607308852020651,0.012582259252667427,-0.02300141751766205,-0.03012218326330185,0.0008388732676394284,0.01827215403318405,0.004783004987984896,-0.006019062362611294,-0.016001570969820023,-0.029208576306700706,-0.017089838162064552,0.002085847081616521,-0.016297148540616035,-0.00877332128584385,0.006401971448212862,-0.003728325478732586,-0.006197081878781319,0.008712861686944962,0.0006952823605388403,-0.001422473811544478,-0.015947828069329262,0.017949704080820084,0.012468057684600353,-0.00792689062654972,-0.0041750529780983925,0.012817379087209702,0.019441034644842148,-0.01713014394044876,0.011279024183750153,-0.004880411550402641,-0.009351043961942196,0.010244498029351234,-0.013126392848789692,-0.0002575819380581379,-0.0024586794897913933,0.001346899545751512,-0.0341528058052063,0.012575541622936726,0.0237269289791584,0.028241226449608803,0.008914392441511154,-0.01456398144364357,-0.005128966644406319,0.02605125494301319,0.009512268006801605,-0.0017717943992465734,-0.02296111173927784,0.0166061632335186,-0.013395100831985474,0.023270126432180405,-0.023082029074430466,0.042912691831588745,-0.022558048367500305,-0.021550392732024193,-0.0022101246286183596,-0.03329293802380562,0.004803158342838287,-0.030149053782224655,-0.002317607868462801,0.009525704197585583,-0.026534929871559143,-0.030955178663134575,0.010123579762876034,-0.023498527705669403,0.011332766152918339,0.013065934181213379,0.01378472801297903,-0.02314920723438263,0.0045478856191039085,-0.0118567468598485,0.0011487273732200265,-0.040118128061294556,0.00877332128584385,0.004783004987984896,-0.004863617476075888,0.0033202250488102436,0.01731823943555355,-0.03135824203491211,-0.013220440596342087,0.008141856640577316,0.021375732496380806,0.011493991129100323,0.018621474504470825,0.027972517535090446,-0.019803790375590324,-0.0011772775324061513,-0.02262522652745247,-0.039123907685279846,0.03329293802380562,-0.01385190524160862,-0.0071543543599545956,-0.00023679905280005187,0.004060851875692606,0.014308708719909191,0.0007099772919900715,-0.014886431396007538,-0.003929856698960066,-0.012730048969388008,0.016431502997875214,-0.013052497990429401,0.012602412141859531,-0.007369320839643478,0.0018624833319336176,-0.002905406756326556,-0.004618421196937561,0.013428689911961555,0.012112019583582878,-0.011473838239908218,-0.012199349701404572,0.01887674815952778,-0.000716275186277926,-0.037269819527864456,-0.03323919698596001,0.01973661407828331,-0.003172435564920306,-0.002729067113250494,-0.00487369392067194,-0.018379637971520424,0.023270126432180405,0.011352919042110443,-0.011695521883666515,0.046379026025533676,0.010755043476819992,0.01632402092218399,0.0037518374156206846,-0.003473052754998207,0.01765412464737892,-0.013106239959597588,-0.007685053162276745,0.028966737911105156,0.013294335454702377,-0.008806909434497356,0.030337149277329445,-0.0066370912827551365,0.009424937888979912,-0.006395253818482161,-0.022799886763095856,-0.007785818539559841,-0.007718641776591539,-0.021644441410899162,0.032809264957904816,-0.007711923681199551,-0.01812436431646347,-0.010634125210344791,-0.006294488441199064,0.016377761960029602,-0.0460028350353241,0.0017818709602579474,0.02181910164654255,-0.020005321130156517,-0.01337494794279337,-0.006684115156531334,-0.17143580317497253,0.011312613263726234,-0.0014132369542494416,-0.011890335939824581,0.009008441120386124,0.005471569485962391,0.019105149433016777,0.013838469982147217,-0.017062967643141747,-0.05234434828162193,0.0038223734591156244,-0.007678335532546043,-0.028160614892840385,-0.012427751906216145,-0.02770381048321724,-0.008538201451301575,-0.02404937893152237,0.012132172472774982,0.03673240542411804,0.008323234505951405,0.032433073967695236,-0.028644287958741188,0.011843311600387096,-0.015007349662482738,-0.02001875638961792,-0.01437588594853878,0.0011193373939022422,0.0001802233891794458,-0.011614909395575523,-0.024640537798404694,-0.0021547034848481417,0.0034562586806714535,0.0013779689325019717,0.0021631005220115185,0.014671465381979942,-0.0038223734591156244,0.0006377620156854391,0.007772383280098438,-0.02633339911699295,0.02869803085923195,0.010116862133145332,0.024358393624424934,0.02618560940027237,-0.0008371938019990921,-0.019239503890275955,0.03235246241092682,0.01855429820716381,0.002720670076087117,0.016243407502770424,-0.015061091631650925,-0.0016315622488036752,-0.025204824283719063,0.021510086953639984,0.0021899715065956116,0.0020270671229809523,0.017022661864757538,-0.0016097297193482518,0.002905406756326556,0.017869092524051666,-0.00243684696033597,-0.032567426562309265,0.010573665611445904,0.02067709155380726,-0.005710048135370016,-0.006116469390690327,-0.02832183800637722,-0.015504459850490093,-0.005827608052641153,-0.011090928688645363,0.017062967643141747,-0.024707714095711708,-0.002065693959593773,-0.00765146454796195,-0.020099369809031487,0.004940871149301529,0.0013233876088634133,-0.002849985845386982,-0.015974698588252068,0.003563741920515895,0.02262522652745247,-0.010143732652068138,0.013395100831985474,-0.00737603846937418,0.004386660642921925,0.009794412180781364,0.015249187126755714,-0.0028214354533702135,-0.009841435588896275,-0.006811751518398523,-0.009666775353252888,0.015907522290945053,-0.03340042382478714,0.00858522579073906,-0.010795350186526775,-0.0044000959023833275,0.0034696939401328564,0.0068621342070400715,-0.007691770792007446,-0.03353477641940117,-0.017103273421525955,0.007537263445556164,-0.004860258661210537,-0.012232938781380653,0.0053842393681406975,0.0033437369856983423,0.017049532383680344,0.00316739734262228,0.009471962228417397,0.05798721686005592,0.004823311232030392,0.010634125210344791,-0.003593971487134695,0.013086087070405483,0.024371828883886337,-0.011997818946838379,0.009592880494892597,-0.01812436431646347,-0.013166699558496475,0.022289341315627098,-0.002376387594267726,0.045277323573827744,-0.009908612817525864,0.032567426562309265,0.0023192872758954763,-0.0003533092385623604,-0.02292080596089363,-0.11995131522417068,-0.007228249218314886,0.005458134226500988,0.013200287707149982,0.01878269948065281,0.018231848254799843,-0.002577918814495206,0.02087862230837345,0.0272738765925169,0.011735828593373299,-0.02528543770313263,-0.016015006229281425,0.004914000164717436,-0.004379943013191223,0.03049837425351143,0.0032093829941004515,0.029880346730351448,-0.010613972321152687,-0.021792231127619743,0.04672834649682045,-0.007107330486178398,0.014537110924720764,0.0021328709553927183,-0.012555387802422047,-0.008914392441511154,0.005545464344322681,-0.032003141939640045,0.023565704002976418,0.015249187126755714,-0.005421186797320843,0.004652009811252356,-0.008679273538291454,0.0059821149334311485,0.005061789881438017,-0.03079395368695259,-0.023565704002976418,-0.015679121017456055,0.007080459501594305,-0.002688760869204998,